{"learner":{"attributes":{"scikit_learn":"{\"_estimator_type\": \"classifier\"}"},"feature_names":[],"feature_types":[],"gradient_booster":{"model":{"gbtree_model_param":{"num_parallel_tree":"1","num_trees":"300"},"iteration_indptr":[0,3,6,9,12,15,18,21,24,27,30,33,36,39,42,45,48,51,54,57,60,63,66,69,72,75,78,81,84,87,90,93,96,99,102,105,108,111,114,117,120,123,126,129,132,135,138,141,144,147,150,153,156,159,162,165,168,171,174,177,180,183,186,189,192,195,198,201,204,207,210,213,216,219,222,225,228,231,234,237,240,243,246,249,252,255,258,261,264,267,270,273,276,279,282,285,288,291,294,297,300],"tree_info":[0,1,2,0,1,2,0,1,2,0,1,2,0,1,2,0,1,2,0,1,2,0,1,2,0,1,2,0,1,2,0,1,2,0,1,2,0,1,2,0,1,2,0,1,2,0,1,2,0,1,2,0,1,2,0,1,2,0,1,2,0,1,2,0,1,2,0,1,2,0,1,2,0,1,2,0,1,2,0,1,2,0,1,2,0,1,2,0,1,2,0,1,2,0,1,2,0,1,2,0,1,2,0,1,2,0,1,2,0,1,2,0,1,2,0,1,2,0,1,2,0,1,2,0,1,2,0,1,2,0,1,2,0,1,2,0,1,2,0,1,2,0,1,2,0,1,2,0,1,2,0,1,2,0,1,2,0,1,2,0,1,2,0,1,2,0,1,2,0,1,2,0,1,2,0,1,2,0,1,2,0,1,2,0,1,2,0,1,2,0,1,2,0,1,2,0,1,2,0,1,2,0,1,2,0,1,2,0,1,2,0,1,2,0,1,2,0,1,2,0,1,2,0,1,2,0,1,2,0,1,2,0,1,2,0,1,2,0,1,2,0,1,2,0,1,2,0,1,2,0,1,2,0,1,2,0,1,2,0,1,2,0,1,2,0,1,2,0,1,2,0,1,2,0,1,2,0,1,2,0,1,2,0,1,2,0,1,2,0,1,2,0,1,2,0,1,2,0,1,2],"trees":[{"base_weights":[2.9214656E-1,3.2697503E-2,4.5177662E-1,-1.2328772E-1,2.582781E-1,1.421446E-1,5.3874004E-1,3.8823527E-1,-1.9621347E-1,1.0434783E0,1.1450378E-1,-1.3469392E-1,5.454545E-1,5.8865243E-1,-2.4793431E-2,5.9999996E-1,-2.0689659E-2,-1.02615744E-1,-6.7741945E-2,2.3999998E-2,1.24528304E-1,-9.473689E-2,6.153846E-1,-2.0960703E-1,6E-2,2.0792076E-1,9.4520545E-1,4.5503354E-1,7.654784E-1,2.7272725E-1,-4.5283023E-1,1.0909092E-1,7.31707E-3,-5.806452E-2,7.263879E-4,-3.6305737E-2,2.1897806E-2,9.176471E-2,-1.463415E-2,2.1897769E-3,-5.0495055E-2,6.734694E-2,-1.9672137E-2,1.1707317E-1,5.121951E-2,7.6E-2,3.1758033E-2,5.6603737E-3,8.2822084E-2,4.6153843E-2,-4.2857148E-2,-2.5544848E-9,-5.853659E-2],"categories":[],"categories_nodes":[],"categories_segments":[],"categories_sizes":[],"default_left":[0,0,0,0,0,0,0,0,0,0,0,0,0,0,0,0,0,0,0,0,0,0,0,0,0,0,0,0,0,0,0,0,0,0,0,0,0,0,0,0,0,0,0,0,0,0,0,0,0,0,0,0,0],"id":0,"left_children":[1,3,5,7,9,11,13,15,17,19,21,23,25,27,29,31,-1,33,-1,-1,-1,35,37,39,-1,41,43,45,47,49,51,-1,-1,-1,-1,-1,-1,-1,-1,-1,-1,-1,-1,-1,-1,-1,-1,-1,-1,-1,-1,-1,-1],"loss_changes":[1.3169279E1,4.336415E0,5.22797E0,2.7993102E0,5.56273E0,5.0481734E0,4.330578E0,1.3144016E0,2.8380547E0,9.4424915E-1,4.6347685E0,1.6240265E0,2.2771788E0,2.9831314E0,1.8356464E0,1.7880266E0,0E0,2.9048033E0,0E0,0E0,0E0,2.7450795E0,3.1274252E0,1.7507815E0,0E0,2.2465343E0,1.9244862E-1,3.228569E0,2.5871162E0,1.3306694E0,3.5342836E-1,0E0,0E0,0E0,0E0,0E0,0E0,0E0,0E0,0E0,0E0,0E0,0E0,0E0,0E0,0E0,0E0,0E0,0E0,0E0,0E0,0E0,0E0],"parents":[2147483647,0,0,1,1,2,2,3,3,4,4,5,5,6,6,7,7,8,8,9,9,10,10,11,11,12,12,13,13,14,14,15,15,17,17,21,21,22,22,23,23,25,25,26,26,27,27,28,28,29,29,30,30],"right_children":[2,4,6,8,10,12,14,16,18,20,22,24,26,28,30,32,-1,34,-1,-1,-1,36,38,40,-1,42,44,46,48,50,52,-1,-1,-1,-1,-1,-1,-1,-1,-1,-1,-1,-1,-1,-1,-1,-1,-1,-1,-1,-1,-1,-1],"split_conditions":[-3.14E-1,1.1861E1,9.41E-1,-1E0,3.29E0,1.216E0,6.591E0,1.951E0,5.051E0,-8.49E-1,5.851E0,1.6443E1,1.3173E1,6.31E-1,6E0,-7.53E-1,-2.0689659E-2,7.92E-1,-6.7741945E-2,2.3999998E-2,1.24528304E-1,6E0,-5.32E-1,4.7E0,6E-2,2.583E0,1.3187E1,1.66E-1,3E0,1.593E0,7.92E-1,1.0909092E-1,7.31707E-3,-5.806452E-2,7.263879E-4,-3.6305737E-2,2.1897806E-2,9.176471E-2,-1.463415E-2,2.1897769E-3,-5.0495055E-2,6.734694E-2,-1.9672137E-2,1.1707317E-1,5.121951E-2,7.6E-2,3.1758033E-2,5.6603737E-3,8.2822084E-2,4.6153843E-2,-4.2857148E-2,-2.5544848E-9,-5.853659E-2],"split_indices":[12,2,7,13,9,6,9,16,3,12,9,8,2,15,4,12,0,1,0,0,0,10,12,9,0,3,8,15,4,6,1,0,0,0,0,0,0,0,0,0,0,0,0,0,0,0,0,0,0,0,0,0,0],"split_type":[0,0,0,0,0,0,0,0,0,0,0,0,0,0,0,0,0,0,0,0,0,0,0,0,0,0,0,0,0,0,0,0,0,0,0,0,0,0,0,0,0,0,0,0,0,0,0,0,0,0,0,0,0],"sum_hessian":[3.173333E2,1.2133333E2,1.9599998E2,7.199999E1,4.9333332E1,4.3555553E1,1.5244444E2,8.444444E0,6.3555553E1,6.666666E0,4.2666664E1,2.6222221E1,1.7333332E1,1.3999998E2,1.2444444E1,6.222222E0,2.222222E0,5.4222218E1,9.333333E0,1.7777777E0,4.8888884E0,3.0666664E1,1.1999999E1,2.4444443E1,1.7777777E0,1.0222221E1,7.1111107E0,8.177777E1,5.8222218E1,7.5555553E0,4.8888884E0,2.6666665E0,3.5555553E0,9.333333E0,4.4888885E1,1.6444443E1,1.4222221E1,8.444444E0,3.5555553E0,1.4222221E1,1.0222221E1,4.444444E0,5.7777777E0,3.5555553E0,3.5555553E0,2.3999998E1,5.7777775E1,4.8888884E0,5.333333E1,6.222222E0,1.3333333E0,1.3333333E0,3.5555553E0],"tree_param":{"num_deleted":"0","num_feature":"20","num_nodes":"53","size_leaf_vector":"1"}},{"base_weights":[-2.4816759E-1,-2.7610046E-1,3.8399997E-1,-2.3517713E-1,-6.8571436E-1,7.058823E-1,-2.44898E-1,2.2758617E-1,-2.6251584E-1,-7.2103016E-2,-2.5544848E-9,-2.0689659E-2,1.0153846E-1,-5.675676E-2,4.285714E-2,5.9999996E-1,-2.6086962E-1,3.8961035E-1,-2.8323954E-1,-4.2857148E-2,8.219178E-2,-4.7368426E-2,4.285714E-2,-4.8000004E-2,6.8852454E-2,-4.4933926E-2,-2.1258404E-2],"categories":[],"categories_nodes":[],"categories_segments":[],"categories_sizes":[],"default_left":[0,0,0,0,0,0,0,0,0,0,0,0,0,0,0,0,0,0,0,0,0,0,0,0,0,0,0],"id":1,"left_children":[1,3,5,7,9,11,13,15,17,-1,-1,-1,-1,-1,-1,19,21,23,25,-1,-1,-1,-1,-1,-1,-1,-1],"loss_changes":[5.72723E0,4.958828E0,2.984413E0,3.5922813E0,6.592274E-1,2.8782024E0,1.4263651E0,3.0872562E0,3.679678E0,0E0,0E0,0E0,0E0,0E0,0E0,2.508024E0,1.3278849E0,2.5544133E0,2.9153767E0,0E0,0E0,0E0,0E0,0E0,0E0,0E0,0E0],"parents":[2147483647,0,0,1,1,2,2,3,3,4,4,5,5,6,6,7,7,8,8,15,15,16,16,17,17,18,18],"right_children":[2,4,6,8,10,12,14,16,18,-1,-1,-1,-1,-1,-1,20,22,24,26,-1,-1,-1,-1,-1,-1,-1,-1],"split_conditions":[7.061E0,2.2E1,7E0,4.81E-1,1.2829E1,4.59E-1,4.923E0,1.652E0,2.8E-2,-7.2103016E-2,-2.5544848E-9,-2.0689659E-2,1.0153846E-1,-5.675676E-2,4.285714E-2,-4.06E-1,2.423E0,3.767E0,1.048E0,-4.2857148E-2,8.219178E-2,-4.7368426E-2,4.285714E-2,-4.8000004E-2,6.8852454E-2,-4.4933926E-2,-2.1258404E-2],"split_indices":[3,4,10,7,8,14,9,6,16,0,0,0,0,0,0,12,6,3,7,0,0,0,0,0,0,0,0],"split_type":[0,0,0,0,0,0,0,0,0,0,0,0,0,0,0,0,0,0,0,0,0,0,0,0,0,0,0],"sum_hessian":[3.173333E2,3.0444443E2,1.2888888E1,2.782222E2,2.6222221E1,8.444444E0,4.444444E0,1.5111111E1,2.6311108E2,2.4888887E1,1.3333333E0,2.222222E0,6.222222E0,3.111111E0,1.3333333E0,8.444444E0,6.666666E0,7.5555553E0,2.5555554E2,1.3333333E0,7.1111107E0,5.333333E0,1.3333333E0,1.7777777E0,5.7777777E0,7.4666664E1,1.8088889E2],"tree_param":{"num_deleted":"0","num_feature":"20","num_nodes":"27","size_leaf_vector":"1"}},{"base_weights":[-4.3979105E-2,3.0632627E-1,-2.0375068E-1,5.77167E-1,6.864945E-3,-4.5013286E-2,-4.1342762E-1,3.787375E-1,8.78453E-1,-3.0573255E-1,1.7647055E-1,-1.0993254E-1,5.9999996E-1,-4.647888E-1,1.5584412E-1,5.764192E-1,-2.2222227E-1,3.0612242E-1,1.0212766E0,1.578947E-1,-5.229358E-1,-3.2432474E-2,5.0442475E-1,1.7506628E-1,-2.6905835E-1,9.1764706E-1,-5.1724143E-2,2.926829E-1,-5.0066763E-1,5.9999996E-1,-3.658537E-1,7.005076E-2,-1.463415E-2,-3.913044E-2,4.285714E-2,-4.2857148E-2,6.486487E-2,1.1652893E-1,1.0344825E-2,8.571428E-2,-2.0000003E-2,1.0344825E-2,-6.741574E-2,3.3707865E-2,-3.428572E-2,-2.0000003E-2,8.571429E-2,-1.0909095E-2,3.8009048E-2,-4.0645167E-2,4.225348E-3,1.0684931E-1,-2.5544848E-9,9.6E-2,-4.8000004E-2,-5.6157645E-2,-2.2147655E-2,9.6E-2,1.0344825E-2,-5.1724143E-2,-2.5544848E-9],"categories":[],"categories_nodes":[],"categories_segments":[],"categories_sizes":[],"default_left":[0,0,0,0,0,0,0,0,0,0,0,0,0,0,0,0,0,0,0,0,0,0,0,0,0,0,0,0,0,0,0,0,0,0,0,0,0,0,0,0,0,0,0,0,0,0,0,0,0,0,0,0,0,0,0,0,0,0,0,0,0],"id":2,"left_children":[1,3,5,7,9,11,13,15,17,19,21,23,25,27,29,31,33,35,37,39,41,43,45,47,49,51,-1,53,55,57,59,-1,-1,-1,-1,-1,-1,-1,-1,-1,-1,-1,-1,-1,-1,-1,-1,-1,-1,-1,-1,-1,-1,-1,-1,-1,-1,-1,-1,-1,-1],"loss_changes":[1.7879162E1,8.115682E0,7.2778883E0,2.8092785E0,2.628285E0,5.3374033E0,2.830597E0,4.101251E0,1.3312931E0,1.839248E0,2.216312E0,5.2725077E0,4.61501E0,2.5049133E0,2.2019637E0,2.384529E0,1.15804E0,1.6480972E0,1.9502563E0,1.756391E0,1.2169383E0,2.4734025E0,3.2910242E0,2.4818735E0,3.1965709E0,1.3073325E0,0E0,2.809756E0,1.2908325E0,7.944828E-1,2.5231284E-1,0E0,0E0,0E0,0E0,0E0,0E0,0E0,0E0,0E0,0E0,0E0,0E0,0E0,0E0,0E0,0E0,0E0,0E0,0E0,0E0,0E0,0E0,0E0,0E0,0E0,0E0,0E0,0E0,0E0,0E0],"parents":[2147483647,0,0,1,1,2,2,3,3,4,4,5,5,6,6,7,7,8,8,9,9,10,10,11,11,12,12,13,13,14,14,15,15,16,16,17,17,18,18,19,19,20,20,21,21,22,22,23,23,24,24,25,25,27,27,28,28,29,29,30,30],"right_children":[2,4,6,8,10,12,14,16,18,20,22,24,26,28,30,32,34,36,38,40,42,44,46,48,50,52,-1,54,56,58,60,-1,-1,-1,-1,-1,-1,-1,-1,-1,-1,-1,-1,-1,-1,-1,-1,-1,-1,-1,-1,-1,-1,-1,-1,-1,-1,-1,-1,-1,-1],"split_conditions":[-4.58E-1,1.0957E1,1.2821E1,9.641E0,1.826E0,9E0,6.712E0,1.61E0,1.539E0,2.82E-1,1.511E0,1.025E0,4.9E1,2.7E-2,5.165E0,6.712E0,4.596E0,-6.62E-1,5.896E0,-7.11E-1,8.25E-1,1E0,1.2317E1,9.619E0,1.353E0,9.871E0,-5.1724143E-2,1.2121E1,1.784E0,2.49E-1,1.5545E1,7.005076E-2,-1.463415E-2,-3.913044E-2,4.285714E-2,-4.2857148E-2,6.486487E-2,1.1652893E-1,1.0344825E-2,8.571428E-2,-2.0000003E-2,1.0344825E-2,-6.741574E-2,3.3707865E-2,-3.428572E-2,-2.0000003E-2,8.571429E-2,-1.0909095E-2,3.8009048E-2,-4.0645167E-2,4.225348E-3,1.0684931E-1,-2.5544848E-9,9.6E-2,-4.8000004E-2,-5.6157645E-2,-2.2147655E-2,9.6E-2,1.0344825E-2,-5.1724143E-2,-2.5544848E-9],"split_indices":[12,2,2,2,6,13,9,7,6,15,1,7,4,14,3,9,9,12,9,12,7,1,8,2,6,2,0,8,6,14,2,0,0,0,0,0,0,0,0,0,0,0,0,0,0,0,0,0,0,0,0,0,0,0,0,0,0,0,0,0,0],"split_type":[0,0,0,0,0,0,0,0,0,0,0,0,0,0,0,0,0,0,0,0,0,0,0,0,0,0,0,0,0,0,0,0,0,0,0,0,0,0,0,0,0,0,0,0,0,0,0,0,0,0,0,0,0,0,0,0,0,0,0,0,0],"sum_hessian":[3.173333E2,9.911111E1,2.1822221E2,5.1555553E1,4.7555553E1,1.2488888E2,9.333333E1,3.2444443E1,1.911111E1,1.6444443E1,3.1111109E1,1.1422221E2,1.0666666E1,8.577777E1,7.5555553E0,2.4444443E1,7.9999995E0,4.444444E0,1.4666666E1,5.333333E0,1.1111111E1,1.9555553E1,1.1555555E1,4.0888885E1,7.333333E1,8.444444E0,2.222222E0,3.5555553E0,8.222221E1,3.9999998E0,3.5555553E0,2.0888887E1,3.5555553E0,6.666666E0,1.3333333E0,1.3333333E0,3.111111E0,1.2444444E1,2.222222E0,1.3333333E0,3.9999998E0,2.222222E0,8.888888E0,8.888888E0,1.0666666E1,3.9999998E0,7.5555553E0,1.7333332E1,2.3555553E1,5.0666664E1,2.2666666E1,7.1111107E0,1.3333333E0,1.7777777E0,1.7777777E0,6.6666664E1,1.5555554E1,1.7777777E0,2.222222E0,2.222222E0,1.3333333E0],"tree_param":{"num_deleted":"0","num_feature":"20","num_nodes":"61","size_leaf_vector":"1"}},{"base_weights":[2.6719797E-1,3.0176938E-2,4.1021457E-1,-1.1589626E-1,2.379735E-1,5.85587E-1,2.8223008E-1,3.7138253E-1,-1.865235E-1,9.517386E-1,1.0362494E-1,2.3608758E-1,6.631214E-1,-4.8374918E-1,3.254514E-1,9.137779E-2,1.23727165E-1,-9.6153446E-2,-6.59896E-2,2.1857532E-2,1.1328826E-1,-9.632751E-2,5.7417333E-1,6.239347E-1,-2.0427586E-1,5.0220484E-1,8.809662E-1,-6.0279876E-2,-1.4724083E-4,-3.5877225E-1,3.663978E-1,-3.6392283E-2,6.284077E-2,-5.6323227E-2,9.1573905E-4,-3.5064477E-2,1.939944E-2,-1.509988E-2,8.57302E-2,-2.2286555E-2,9.328594E-2,4.0428054E-2,-4.8106898E-2,8.856656E-2,2.898593E-2,1.3738821E-2,9.718045E-2,9.280674E-3,-5.983552E-2,-5.692688E-3,4.403145E-2],"categories":[],"categories_nodes":[],"categories_segments":[],"categories_sizes":[],"default_left":[0,0,0,0,0,0,0,0,0,0,0,0,0,0,0,0,0,0,0,0,0,0,0,0,0,0,0,0,0,0,0,0,0,0,0,0,0,0,0,0,0,0,0,0,0,0,0,0,0,0,0],"id":3,"left_children":[1,3,5,7,9,11,13,15,17,19,21,23,25,27,29,-1,31,33,-1,-1,-1,35,37,39,41,43,45,-1,-1,47,49,-1,-1,-1,-1,-1,-1,-1,-1,-1,-1,-1,-1,-1,-1,-1,-1,-1,-1,-1,-1],"loss_changes":[1.0918327E1,3.7437005E0,4.3468704E0,2.5665622E0,4.778926E0,2.1165428E0,4.0689106E0,1.1657908E0,2.6762366E0,8.0623436E-1,4.188486E0,2.9939141E0,1.9448223E0,3.8452327E-1,3.2814903E0,0E0,2.1219172E0,2.7079391E0,0E0,0E0,0E0,2.4074664E0,2.8486576E0,2.6068394E0,1.6452687E0,3.1219702E0,1.7311783E0,0E0,0E0,7.970538E-1,3.3600702E0,0E0,0E0,0E0,0E0,0E0,0E0,0E0,0E0,0E0,0E0,0E0,0E0,0E0,0E0,0E0,0E0,0E0,0E0,0E0,0E0],"parents":[2147483647,0,0,1,1,2,2,3,3,4,4,5,5,6,6,7,7,8,8,9,9,10,10,11,11,12,12,13,13,14,14,16,16,17,17,21,21,22,22,23,23,24,24,25,25,26,26,29,29,30,30],"right_children":[2,4,6,8,10,12,14,16,18,20,22,24,26,28,30,-1,32,34,-1,-1,-1,36,38,40,42,44,46,-1,-1,48,50,-1,-1,-1,-1,-1,-1,-1,-1,-1,-1,-1,-1,-1,-1,-1,-1,-1,-1,-1,-1],"split_conditions":[-3.14E-1,1.1861E1,4.128E0,-1E0,3.29E0,9.41E-1,4.81E-1,7.66E-1,5.051E0,-8.49E-1,5.851E0,2.33E-1,6.88E-1,1.373E0,3E-2,9.137779E-2,3.178E0,7.92E-1,-6.59896E-2,2.1857532E-2,1.1328826E-1,6E0,2.16E-1,6.2E-2,4.61E-1,1.66E-1,3E0,-6.0279876E-2,-1.4724083E-4,1.215E0,2.01E-1,-3.6392283E-2,6.284077E-2,-5.6323227E-2,9.1573905E-4,-3.5064477E-2,1.939944E-2,-1.509988E-2,8.57302E-2,-2.2286555E-2,9.328594E-2,4.0428054E-2,-4.8106898E-2,8.856656E-2,2.898593E-2,1.3738821E-2,9.718045E-2,9.280674E-3,-5.983552E-2,-5.692688E-3,4.403145E-2],"split_indices":[12,2,9,13,9,7,7,1,3,12,9,12,15,6,14,0,9,1,0,0,0,10,16,14,7,15,5,0,0,1,16,0,0,0,0,0,0,0,0,0,0,0,0,0,0,0,0,0,0,0,0],"split_type":[0,0,0,0,0,0,0,0,0,0,0,0,0,0,0,0,0,0,0,0,0,0,0,0,0,0,0,0,0,0,0,0,0,0,0,0,0,0,0,0,0,0,0,0,0,0,0,0,0,0,0],"sum_hessian":[3.2145938E2,1.2142804E2,2.0003134E2,7.15637E1,4.9864338E1,8.2883575E1,1.1714776E2,8.520415E0,6.3043285E1,6.9351697E0,4.292917E1,1.5783169E1,6.71004E1,5.71274E0,1.1143502E2,1.827736E0,6.692679E0,5.3947468E1,9.095818E0,1.8111894E0,5.1239805E0,3.068523E1,1.2243939E1,8.170337E0,7.612832E0,4.0493893E1,2.6606514E1,4.3813148E0,1.3314255E0,5.8538527E0,1.0558117E2,3.5456152E0,3.1470635E0,9.125482E0,4.4821983E1,1.6246117E1,1.4439113E1,3.5691133E0,8.674826E0,2.25839E0,5.911947E0,2.2360573E0,5.376775E0,1.3301935E1,2.7191956E1,3.1700225E0,2.3436491E1,2.2415287E0,3.612324E0,1.5729178E1,8.985199E1],"tree_param":{"num_deleted":"0","num_feature":"20","num_nodes":"51","size_leaf_vector":"1"}},{"base_weights":[-2.3310325E-1,-3.069746E-1,-1.331419E-2,-4.0432144E-2,-3.7587503E-1,1.0944416E-1,-3.693707E-1,4.0192732E-1,-1.9109724E-1,-1.6369611E-1,-4.6088186E-1,9.6963845E-2,3.0182786E-2,-4.8357674E-1,3.950457E-2,-6.2266793E-2,1.05221026E-1,7.761363E-2,-2.8927666E-1,5.201515E-2,-3.464925E-1,-2.67367E-1,-5.8036476E-1,-2.756132E-1,2.0392478E-1,-5.7155997E-1,1.1749415E-2,4.211539E-2,-5.775949E-2,-6.1045047E-2,-8.678666E-3,-1.5191855E-2,6.0885657E-2,-4.1837443E-2,2.8750464E-2,1.5434078E-2,-4.1277573E-2,-1.57663E-2,-6.295678E-2,-5.195982E-2,7.5033666E-3,5.746429E-2,-7.1646827E-3,-6.2295176E-2,6.398465E-4],"categories":[],"categories_nodes":[],"categories_segments":[],"categories_sizes":[],"default_left":[0,0,0,0,0,0,0,0,0,0,0,0,0,0,0,0,0,0,0,0,0,0,0,0,0,0,0,0,0,0,0,0,0,0,0,0,0,0,0,0,0,0,0,0,0],"id":4,"left_children":[1,3,5,7,9,11,13,15,17,19,21,-1,23,25,-1,27,-1,-1,29,31,33,35,37,39,41,43,-1,-1,-1,-1,-1,-1,-1,-1,-1,-1,-1,-1,-1,-1,-1,-1,-1,-1,-1],"loss_changes":[5.097967E0,4.303253E0,3.541239E0,3.3705642E0,3.29249E0,4.0841007E0,2.0036647E0,3.9528432E0,3.7896047E0,2.1852486E0,2.9145832E0,0E0,3.0459602E0,1.0462403E0,0E0,2.3503866E0,0E0,0E0,2.2109363E0,3.0541928E0,1.4820681E0,3.285188E0,1.5901699E0,1.8196403E0,3.7658343E0,4.887371E-1,0E0,0E0,0E0,0E0,0E0,0E0,0E0,0E0,0E0,0E0,0E0,0E0,0E0,0E0,0E0,0E0,0E0,0E0,0E0],"parents":[2147483647,0,0,1,1,2,2,3,3,4,4,5,5,6,6,7,7,8,8,9,9,10,10,12,12,13,13,15,15,18,18,19,19,20,20,21,21,22,22,23,23,24,24,25,25],"right_children":[2,4,6,8,10,12,14,16,18,20,22,-1,24,26,-1,28,-1,-1,30,32,34,36,38,40,42,44,-1,-1,-1,-1,-1,-1,-1,-1,-1,-1,-1,-1,-1,-1,-1,-1,-1,-1,-1],"split_conditions":[5.54E0,8.55E-1,1.414E0,2.6E-1,1E0,4.61E-1,7.223E0,1.75E-1,5.63E-1,1.371E0,3.87E-1,9.6963845E-2,1.1707E1,1.95E0,3.950457E-2,1.361E0,1.05221026E-1,7.761363E-2,1.14E0,1.635E0,9.44E-1,4E0,1.023E0,5.68E-1,5.109E0,6.68E0,1.1749415E-2,4.211539E-2,-5.775949E-2,-6.1045047E-2,-8.678666E-3,-1.5191855E-2,6.0885657E-2,-4.1837443E-2,2.8750464E-2,1.5434078E-2,-4.1277573E-2,-1.57663E-2,-6.295678E-2,-5.195982E-2,7.5033666E-3,5.746429E-2,-7.1646827E-3,-6.2295176E-2,6.398465E-4],"split_indices":[3,6,16,15,0,7,3,15,7,1,14,0,8,14,0,0,0,0,1,7,0,4,6,16,9,9,0,0,0,0,0,0,0,0,0,0,0,0,0,0,0,0,0,0,0],"split_type":[0,0,0,0,0,0,0,0,0,0,0,0,0,0,0,0,0,0,0,0,0,0,0,0,0,0,0,0,0,0,0,0,0,0,0,0,0,0,0,0,0,0,0,0,0],"sum_hessian":[3.132411E2,2.3414725E2,7.909383E1,4.8420094E1,1.8572716E2,5.9330833E1,1.9762995E1,1.1878016E1,3.6542076E1,5.3962154E1,1.31765E2,4.0579524E0,5.527288E1,1.7513777E1,2.249218E0,7.458285E0,4.4197316E0,2.7310758E0,3.3811E1,2.5080744E1,2.888141E1,5.1535553E1,8.022945E1,1.9813549E1,3.545933E1,1.5320323E1,2.193453E0,3.9425712E0,3.515714E0,1.2294968E1,2.1516033E1,1.888984E1,6.1909037E0,2.624579E1,2.6356199E0,1.319797E1,3.833758E1,8.803471E0,7.142598E1,1.1399671E1,8.413878E0,1.465676E1,2.0802572E1,1.3997797E1,1.3225259E0],"tree_param":{"num_deleted":"0","num_feature":"20","num_nodes":"45","size_leaf_vector":"1"}},{"base_weights":[-4.0692076E-2,3.0721167E-1,-1.808061E-1,5.6133026E-1,2.7463596E-2,-3.459941E-2,-3.8267186E-1,4.4239143E-1,1.1949485E-1,1.3773738E-1,-4.3153843E-1,-1.8668114E-1,2.5095046E-1,-4.39719E-1,2.0731433E-1,9.5606625E-2,3.2306403E-1,-2.4826859E-1,3.0350593E-1,1.1042593E-2,-6.271936E-2,-4.1314563E-1,2.198331E-2,7.0369965E-1,6.333857E-2,2.8641048E-1,-4.74149E-1,9.119208E-2,-9.681473E-2,1.124566E-2,8.069744E-2,-5.2620646E-2,2.9874543E-2,8.189794E-2,-1.1600352E-2,-5.16756E-2,8.114039E-3,6.428384E-2,-1.2642721E-2,-3.2744627E-2,1.0440578E-1,-6.74501E-3,9.05335E-2,9.089242E-2,-4.6415623E-2,-3.5239507E-2,-6.089698E-2,-4.274011E-2,5.7770457E-2],"categories":[],"categories_nodes":[],"categories_segments":[],"categories_sizes":[],"default_left":[0,0,0,0,0,0,0,0,0,0,0,0,0,0,0,0,0,0,0,0,0,0,0,0,0,0,0,0,0,0,0,0,0,0,0,0,0,0,0,0,0,0,0,0,0,0,0,0,0],"id":5,"left_children":[1,3,5,7,9,11,13,15,-1,17,19,21,23,25,27,-1,29,31,33,-1,-1,35,37,39,41,43,45,-1,47,-1,-1,-1,-1,-1,-1,-1,-1,-1,-1,-1,-1,-1,-1,-1,-1,-1,-1,-1,-1],"loss_changes":[1.5520647E1,6.486246E0,6.6805577E0,3.0791454E0,2.3161502E0,5.806677E0,3.2942E0,2.2590742E0,0E0,2.4241183E0,1.0107147E0,4.125701E0,3.9067092E0,2.31328E0,2.0319545E0,0E0,3.5279853E0,1.9174335E0,5.7452593E0,0E0,0E0,2.1839767E0,4.3463807E0,5.090284E0,3.8039517E0,2.555402E0,1.1565552E0,0E0,1.8612492E0,0E0,0E0,0E0,0E0,0E0,0E0,0E0,0E0,0E0,0E0,0E0,0E0,0E0,0E0,0E0,0E0,0E0,0E0,0E0,0E0],"parents":[2147483647,0,0,1,1,2,2,3,3,4,4,5,5,6,6,7,7,9,9,10,10,11,11,12,12,13,13,14,14,16,16,17,17,18,18,21,21,22,22,23,23,24,24,25,25,26,26,28,28],"right_children":[2,4,6,8,10,12,14,16,-1,18,20,22,24,26,28,-1,30,32,34,-1,-1,36,38,40,42,44,46,-1,48,-1,-1,-1,-1,-1,-1,-1,-1,-1,-1,-1,-1,-1,-1,-1,-1,-1,-1,-1,-1],"split_conditions":[-5.18E-1,1.0957E1,1.2821E1,6E0,6.604E0,4.797E0,6.712E0,6.96E-1,1.1949485E-1,1.2317E1,1.86E-1,1.042E0,5.428E0,2.7E-2,6.895E0,9.5606625E-2,2.102E0,1E0,5.235E0,1.1042593E-2,-6.271936E-2,1.4E1,8.33E-1,3.97E-1,4E0,1.2121E1,5.83E-1,9.119208E-2,7E0,1.124566E-2,8.069744E-2,-5.2620646E-2,2.9874543E-2,8.189794E-2,-1.1600352E-2,-5.16756E-2,8.114039E-3,6.428384E-2,-1.2642721E-2,-3.2744627E-2,1.0440578E-1,-6.74501E-3,9.05335E-2,9.089242E-2,-4.6415623E-2,-3.5239507E-2,-6.089698E-2,-4.274011E-2,5.7770457E-2],"split_indices":[12,2,2,13,3,9,9,14,0,8,15,6,9,14,9,0,16,13,9,0,0,4,7,15,13,8,12,0,10,0,0,0,0,0,0,0,0,0,0,0,0,0,0,0,0,0,0,0,0],"split_type":[0,0,0,0,0,0,0,0,0,0,0,0,0,0,0,0,0,0,0,0,0,0,0,0,0,0,0,0,0,0,0,0,0,0,0,0,0,0,0,0,0,0,0,0,0,0,0,0,0],"sum_hessian":[3.1625763E2,9.045783E1,2.2579979E2,4.6872795E1,4.3585037E1,1.3163269E2,9.41671E1,4.0894527E1,5.9782677E0,3.570657E1,7.8784695E0,8.611482E1,4.551787E1,8.609689E1,8.07021E0,6.387178E0,3.4507347E1,1.0577738E1,2.512883E1,2.2053273E0,5.6731424E0,4.0826107E1,4.528872E1,1.2529816E1,3.2988056E1,3.566236E0,8.2530655E1,1.8306024E0,6.239608E0,2.4901924E1,9.605425E0,7.039173E0,3.5385652E0,1.0847591E1,1.42812395E1,3.371371E1,7.112397E0,8.094596E0,3.7194122E1,3.1188657E0,9.41095E0,2.9349104E1,3.638951E0,1.8340809E0,1.7321551E0,4.5265823E1,3.726483E1,4.4332194E0,1.8063884E0],"tree_param":{"num_deleted":"0","num_feature":"20","num_nodes":"49","size_leaf_vector":"1"}},{"base_weights":[2.4462605E-1,-4.8386697E-2,3.4192517E-1,-1.5996607E-1,2.2963035E-1,3.9400823E-2,4.0534368E-1,-4.3481928E-1,4.1435257E-2,-5.735137E-2,3.9430732E-1,-7.695616E-2,7.088501E-1,4.481409E-1,-5.518784E-2,-5.901251E-1,-2.5879724E-3,3.6624622E-1,-1.0884335E-1,-4.3893907E-2,4.7644222E-1,-2.3930405E-1,3.9583877E-1,8.211125E-3,1.0195439E-1,3.6029842E-1,6.090353E-1,-4.2021844E-1,2.2304541E-1,-6.88731E-2,-1.7737074E-2,7.418766E-2,-5.7843745E-2,-4.6804667E-2,5.6704756E-2,1.0931044E-2,-3.9322745E-2,1.8773159E-2,8.921527E-2,-5.631825E-2,-6.1654705E-3,-4.729436E-2,6.359344E-2,3.1819053E-2,6.755745E-2,6.396853E-2,-4.5310955E-2,8.389204E-3,-6.270873E-2,5.5072963E-2,-3.603135E-2],"categories":[],"categories_nodes":[],"categories_segments":[],"categories_sizes":[],"default_left":[0,0,0,0,0,0,0,0,0,0,0,0,0,0,0,0,0,0,0,0,0,0,0,0,0,0,0,0,0,0,0,0,0,0,0,0,0,0,0,0,0,0,0,0,0,0,0,0,0,0,0],"id":6,"left_children":[1,3,5,7,9,11,13,15,17,-1,19,21,23,25,27,29,31,33,35,-1,37,39,41,-1,-1,43,45,47,49,-1,-1,-1,-1,-1,-1,-1,-1,-1,-1,-1,-1,-1,-1,-1,-1,-1,-1,-1,-1,-1,-1],"loss_changes":[9.301659E0,2.5824218E0,4.677166E0,3.2923195E0,3.3889046E0,3.4430022E0,4.0083427E0,1.6834369E0,1.7506983E0,0E0,1.6078107E0,3.0085113E0,1.1896131E0,2.3958168E0,1.9295939E0,6.292176E-1,3.7041276E0,2.1611063E0,1.5774422E0,0E0,2.1228313E0,1.6270031E0,2.4033427E0,0E0,0E0,1.406539E0,2.370081E0,9.0411556E-1,2.2841153E0,0E0,0E0,0E0,0E0,0E0,0E0,0E0,0E0,0E0,0E0,0E0,0E0,0E0,0E0,0E0,0E0,0E0,0E0,0E0,0E0,0E0,0E0],"parents":[2147483647,0,0,1,1,2,2,3,3,4,4,5,5,6,6,7,7,8,8,10,10,11,11,12,12,13,13,14,14,15,15,16,16,17,17,18,18,20,20,21,21,22,22,25,25,26,26,27,27,28,28],"right_children":[2,4,6,8,10,12,14,16,18,-1,20,22,24,26,28,30,32,34,36,-1,38,40,42,-1,-1,44,46,48,50,-1,-1,-1,-1,-1,-1,-1,-1,-1,-1,-1,-1,-1,-1,-1,-1,-1,-1,-1,-1,-1,-1],"split_conditions":[-5.71E-1,5.676E0,8.25E-1,5E0,7.95E-1,2E0,6.591E0,1.4337E1,3.328E0,-5.735137E-2,3.22E-1,1.094E0,4E-2,1.3493E1,7.161E0,1.236E0,1.1576E1,1.63E-1,1E0,-4.3893907E-2,1.1691E1,5.63E-1,1.0661E1,8.211125E-3,1.0195439E-1,2.2E1,1.7733E1,1.032E0,5.835E0,-6.88731E-2,-1.7737074E-2,7.418766E-2,-5.7843745E-2,-4.6804667E-2,5.6704756E-2,1.0931044E-2,-3.9322745E-2,1.8773159E-2,8.921527E-2,-5.631825E-2,-6.1654705E-3,-4.729436E-2,6.359344E-2,3.1819053E-2,6.755745E-2,6.396853E-2,-4.5310955E-2,8.389204E-3,-6.270873E-2,5.5072963E-2,-3.603135E-2],"split_indices":[12,9,7,10,1,6,9,2,3,0,16,16,12,2,9,0,8,16,13,0,2,7,8,0,0,4,8,7,3,0,0,0,0,0,0,0,0,0,0,0,0,0,0,0,0,0,0,0,0,0,0],"split_type":[0,0,0,0,0,0,0,0,0,0,0,0,0,0,0,0,0,0,0,0,0,0,0,0,0,0,0,0,0,0,0,0,0,0,0,0,0,0,0,0,0,0,0,0,0,0,0,0,0,0,0],"sum_hessian":[3.246805E2,8.106349E1,2.43617E2,5.815013E1,2.2913357E1,4.2500195E1,2.0111682E2,2.410076E1,3.4049374E1,3.4763298E0,1.9437027E1,3.696104E1,5.539153E0,1.840408E2,1.7076015E1,1.746138E1,6.6393795E0,1.031579E1,2.3733582E1,1.3542495E0,1.8082779E1,2.7881105E1,9.079935E0,2.2548664E0,3.284287E0,1.2114137E2,6.2899426E1,7.165225E0,9.910791E0,1.35546E1,3.9067798E0,2.7699893E0,3.86939E0,1.7430092E0,8.572781E0,1.3779115E1,9.954467E0,1.1528108E1,6.5546703E0,9.107226E0,1.877388E1,1.7560134E0,7.323922E0,1.0864069E2,1.2500686E1,6.1521847E1,1.3775784E0,2.2577846E0,4.90744E0,6.3818903E0,3.5289009E0],"tree_param":{"num_deleted":"0","num_feature":"20","num_nodes":"51","size_leaf_vector":"1"}},{"base_weights":[-2.1898971E-1,-2.4505524E-1,3.4328616E-1,-2.0681208E-1,-6.432408E-1,6.364938E-1,-2.4436286E-1,2.1018954E-1,-2.3229446E-1,-6.795007E-2,1.7947967E-3,-1.9354312E-2,9.033707E-1,-5.5744972E-2,3.949655E-2,5.3822345E-1,-2.4043769E-1,3.6504105E-1,-2.5208646E-1,4.703967E-1,1.05915956E-1,9.532874E-2,-2.8826313E-3,-4.5239985E-2,4.237152E-2,-4.6230745E-2,6.3777976E-2,-4.151987E-2,-1.8360514E-2,7.7100694E-2,-3.2313846E-3],"categories":[],"categories_nodes":[],"categories_segments":[],"categories_sizes":[],"default_left":[0,0,0,0,0,0,0,0,0,0,0,0,0,0,0,0,0,0,0,0,0,0,0,0,0,0,0,0,0,0,0],"id":7,"left_children":[1,3,5,7,9,11,13,15,17,-1,-1,-1,19,-1,-1,21,23,25,27,29,-1,-1,-1,-1,-1,-1,-1,-1,-1,-1,-1],"loss_changes":[4.627166E0,4.3870354E0,2.5935564E0,2.9422493E0,6.244221E-1,2.3273473E0,1.3075737E0,2.5250092E0,3.1314077E0,0E0,0E0,0E0,9.650707E-3,0E0,0E0,2.3075678E0,1.2501087E0,2.247517E0,2.709961E0,5.978492E-1,0E0,0E0,0E0,0E0,0E0,0E0,0E0,0E0,0E0,0E0,0E0],"parents":[2147483647,0,0,1,1,2,2,3,3,4,4,5,5,6,6,7,7,8,8,12,12,15,15,16,16,17,17,18,18,19,19],"right_children":[2,4,6,8,10,12,14,16,18,-1,-1,-1,20,-1,-1,22,24,26,28,30,-1,-1,-1,-1,-1,-1,-1,-1,-1,-1,-1],"split_conditions":[7.061E0,2.2E1,7E0,4.81E-1,1.2829E1,4.59E-1,4.923E0,1.652E0,2.8E-2,-6.795007E-2,1.7947967E-3,-1.9354312E-2,2.68E-1,-5.5744972E-2,3.949655E-2,4.11E-1,2.423E0,3.767E0,1.048E0,1.18E0,1.05915956E-1,9.532874E-2,-2.8826313E-3,-4.5239985E-2,4.237152E-2,-4.6230745E-2,6.3777976E-2,-4.151987E-2,-1.8360514E-2,7.7100694E-2,-3.2313846E-3],"split_indices":[3,4,10,7,8,14,9,6,16,0,0,0,15,0,0,14,6,3,7,7,0,0,0,0,0,0,0,0,0,0,0],"split_type":[0,0,0,0,0,0,0,0,0,0,0,0,0,0,0,0,0,0,0,0,0,0,0,0,0,0,0,0,0,0,0],"sum_hessian":[3.089779E2,2.958283E2,1.3149597E1,2.7129184E2,2.4536444E1,8.717086E0,4.432512E0,1.5206089E1,2.5608575E2,2.3234556E1,1.3018882E0,2.1877034E0,6.529382E0,3.0613842E0,1.3711274E0,8.687581E0,6.518508E0,7.653521E0,2.4843224E2,2.7912605E0,3.7381217E0,4.622736E0,4.064845E0,5.183153E0,1.3353543E0,1.7251749E0,5.928346E0,7.1963356E1,1.7646889E2,1.4127603E0,1.3785002E0],"tree_param":{"num_deleted":"0","num_feature":"20","num_nodes":"31","size_leaf_vector":"1"}},{"base_weights":[-3.734193E-2,2.831857E-1,-1.6921578E-1,5.1453894E-1,2.3615284E-2,-2.9687064E-2,-3.647598E-1,4.0473852E-1,1.0919787E-1,1.2671281E-1,-4.1505703E-1,-1.7509353E-1,2.3885377E-1,-4.56806E-1,-7.817747E-3,8.8523114E-1,2.9244795E-1,-2.3672538E-1,2.794221E-1,1.1049241E-2,-6.0974337E-2,-3.9225286E-1,2.0663828E-2,5.910324E-1,2.9126655E-2,3.7515256E-1,-4.9912053E-1,8.444427E-2,-1.13632225E-1,1.0423899E-1,4.568927E-2,9.527075E-3,7.393659E-2,-5.0828215E-2,2.8181901E-2,7.455733E-2,-1.120739E-2,-4.951247E-2,8.712492E-3,5.955097E-2,-1.2025536E-2,-1.152638E-2,8.760453E-2,1.8418273E-2,-4.9981765E-2,8.606741E-2,-4.0461637E-2,-5.4908384E-2,-1.1715063E-2,-2.789954E-2,4.0082075E-2],"categories":[],"categories_nodes":[],"categories_segments":[],"categories_sizes":[],"default_left":[0,0,0,0,0,0,0,0,0,0,0,0,0,0,0,0,0,0,0,0,0,0,0,0,0,0,0,0,0,0,0,0,0,0,0,0,0,0,0,0,0,0,0,0,0,0,0,0,0,0,0],"id":8,"left_children":[1,3,5,7,9,11,13,15,-1,17,19,21,23,25,27,29,31,33,35,-1,-1,37,39,41,43,45,47,-1,49,-1,-1,-1,-1,-1,-1,-1,-1,-1,-1,-1,-1,-1,-1,-1,-1,-1,-1,-1,-1,-1,-1],"loss_changes":[1.33913145E1,5.536269E0,6.1085243E0,2.652337E0,2.0691895E0,5.195224E0,3.0620146E0,2.03933E0,0E0,2.1124547E0,9.594891E-1,3.6723022E0,3.4382038E0,2.7979765E0,1.9127432E0,3.3695698E-2,3.1036935E0,1.755553E0,4.9051595E0,0E0,0E0,2.0607796E0,3.8207119E0,3.6055446E0,2.5831382E0,1.9232808E0,1.2906704E0,0E0,1.711367E0,0E0,0E0,0E0,0E0,0E0,0E0,0E0,0E0,0E0,0E0,0E0,0E0,0E0,0E0,0E0,0E0,0E0,0E0,0E0,0E0,0E0,0E0],"parents":[2147483647,0,0,1,1,2,2,3,3,4,4,5,5,6,6,7,7,9,9,10,10,11,11,12,12,13,13,14,14,15,15,16,16,17,17,18,18,21,21,22,22,23,23,24,24,25,25,26,26,28,28],"right_children":[2,4,6,8,10,12,14,16,-1,18,20,22,24,26,28,30,32,34,36,-1,-1,38,40,42,44,46,48,-1,50,-1,-1,-1,-1,-1,-1,-1,-1,-1,-1,-1,-1,-1,-1,-1,-1,-1,-1,-1,-1,-1,-1],"split_conditions":[-5.18E-1,1.0957E1,1.2821E1,6E0,6.604E0,4.797E0,5.896E0,6.96E-1,1.0919787E-1,1.2317E1,1.86E-1,1.042E0,5.594E0,2.7E-2,4.7E-2,9.871E0,2.102E0,1E0,5.235E0,1.1049241E-2,-6.0974337E-2,1.4E1,8.33E-1,3.97E-1,2E0,1.2121E1,1.7934E1,8.444427E-2,7E0,1.0423899E-1,4.568927E-2,9.527075E-3,7.393659E-2,-5.0828215E-2,2.8181901E-2,7.455733E-2,-1.120739E-2,-4.951247E-2,8.712492E-3,5.955097E-2,-1.2025536E-2,-1.152638E-2,8.760453E-2,1.8418273E-2,-4.9981765E-2,8.606741E-2,-4.0461637E-2,-5.4908384E-2,-1.1715063E-2,-2.789954E-2,4.0082075E-2],"split_indices":[12,2,2,13,3,9,9,14,0,8,15,6,9,14,15,2,16,13,9,0,0,4,7,15,1,8,2,0,10,0,0,0,0,0,0,0,0,0,0,0,0,0,0,0,0,0,0,0,0,0,0],"split_type":[0,0,0,0,0,0,0,0,0,0,0,0,0,0,0,0,0,0,0,0,0,0,0,0,0,0,0,0,0,0,0,0,0,0,0,0,0,0,0,0,0,0,0,0,0,0,0,0,0,0,0],"sum_hessian":[3.1467645E2,9.13929E1,2.2328355E2,4.780361E1,4.3589287E1,1.3097751E2,9.230604E1,4.1595184E1,6.208426E0,3.5870163E1,7.719124E0,8.519504E1,4.578247E1,7.316013E1,1.91459E1,6.5754323E0,3.5019753E1,1.04499035E1,2.5420261E1,2.2034478E0,5.515676E0,3.991377E1,4.5281273E1,1.6409372E1,2.9373098E1,3.160223E0,6.999991E1,1.3436165E0,1.7802284E1,3.76169E0,2.8137422E0,2.5140919E1,9.878833E0,6.871273E0,3.5786302E0,1.119091E1,1.422935E1,3.283476E1,7.079006E0,8.279825E0,3.700145E1,4.889123E0,1.1520249E1,2.3218548E1,6.1545515E0,1.8836296E0,1.2765934E0,6.1515865E1,8.484047E0,1.3818288E1,3.9839962E0],"tree_param":{"num_deleted":"0","num_feature":"20","num_nodes":"51","size_leaf_vector":"1"}},{"base_weights":[2.2378628E-1,-4.6754494E-2,3.121557E-1,4.1246328E-1,-1.0765053E-1,7.072084E-2,3.7836787E-1,-1.7216177E-1,7.8349096E-1,-2.525292E-1,1.14242E-1,-1.6614075E-1,3.83298E-1,4.2053342E-1,-5.6042988E-2,3.6943525E-2,-5.2044164E-2,3.4494758E-2,9.592601E-2,-4.2327902E-1,1.6414608E-1,-2.2537479E-1,3.6566702E-1,-2.3497686E-1,7.649254E-2,9.067887E-2,7.193172E-1,2.2667608E-1,4.8571005E-1,-4.0927833E-1,2.090366E-1,2.495864E-2,-4.7039237E-2,4.6630304E-2,-3.0519707E-2,2.8749261E-2,-3.806111E-2,-2.9782165E-2,5.105194E-2,-3.0755315E-3,-4.8464682E-2,6.1449528E-2,-3.849905E-2,1.0344414E-1,3.0493153E-2,-3.4215335E-2,3.9309595E-2,6.7980126E-2,3.771887E-2,8.122002E-3,-6.1383408E-2,4.55571E-2,-5.2292265E-2],"categories":[],"categories_nodes":[],"categories_segments":[],"categories_sizes":[],"default_left":[0,0,0,0,0,0,0,0,0,0,0,0,0,0,0,0,0,0,0,0,0,0,0,0,0,0,0,0,0,0,0,0,0,0,0,0,0,0,0,0,0,0,0,0,0,0,0,0,0,0,0,0,0],"id":9,"left_children":[1,3,5,7,9,11,13,15,17,19,21,23,25,27,29,-1,-1,-1,-1,31,33,35,37,39,-1,41,43,45,47,49,51,-1,-1,-1,-1,-1,-1,-1,-1,-1,-1,-1,-1,-1,-1,-1,-1,-1,-1,-1,-1,-1,-1],"loss_changes":[7.861809E0,2.3287039E0,3.9304943E0,2.2543144E0,2.3728757E0,4.0992484E0,3.577818E0,1.0624748E0,1.4374399E-1,3.2301316E0,2.6005642E0,2.2118607E0,2.2749453E0,2.1261501E0,1.7756939E0,0E0,0E0,0E0,0E0,1.1251931E0,2.0757596E0,1.1574669E0,1.8172908E0,1.5294713E0,0E0,3.6914554E0,1.1124E0,4.5276895E0,2.5150814E0,8.6019826E-1,2.2184803E0,0E0,0E0,0E0,0E0,0E0,0E0,0E0,0E0,0E0,0E0,0E0,0E0,0E0,0E0,0E0,0E0,0E0,0E0,0E0,0E0,0E0,0E0],"parents":[2147483647,0,0,1,1,2,2,3,3,4,4,5,5,6,6,7,7,8,8,9,9,10,10,11,11,12,12,13,13,14,14,19,19,20,20,21,21,22,22,23,23,25,25,26,26,27,27,28,28,29,29,30,30],"right_children":[2,4,6,8,10,12,14,16,18,20,22,24,26,28,30,-1,-1,-1,-1,32,34,36,38,40,-1,42,44,46,48,50,52,-1,-1,-1,-1,-1,-1,-1,-1,-1,-1,-1,-1,-1,-1,-1,-1,-1,-1,-1,-1,-1,-1],"split_conditions":[-5.71E-1,-1E0,9.41E-1,1.005E0,6E0,1.216E0,6.591E0,6.97E-1,1.0298E1,5.851E0,1.0127E1,1.7743E1,1.2972E1,3.216E0,7.161E0,3.6943525E-2,-5.2044164E-2,3.4494758E-2,9.592601E-2,4.92E-1,4E0,2.71E-1,1.86E-1,7.85E-1,7.649254E-2,2.845E0,1.3187E1,-2.08E-1,1.11E0,1.032E0,7.47E-1,2.495864E-2,-4.7039237E-2,4.6630304E-2,-3.0519707E-2,2.8749261E-2,-3.806111E-2,-2.9782165E-2,5.105194E-2,-3.0755315E-3,-4.8464682E-2,6.1449528E-2,-3.849905E-2,1.0344414E-1,3.0493153E-2,-3.4215335E-2,3.9309595E-2,6.7980126E-2,3.771887E-2,8.122002E-3,-6.1383408E-2,4.55571E-2,-5.2292265E-2],"split_indices":[12,13,7,7,10,6,9,7,8,9,2,2,2,3,9,0,0,0,0,1,10,15,15,7,0,3,8,12,1,7,15,0,0,0,0,0,0,0,0,0,0,0,0,0,0,0,0,0,0,0,0,0,0],"split_type":[0,0,0,0,0,0,0,0,0,0,0,0,0,0,0,0,0,0,0,0,0,0,0,0,0,0,0,0,0,0,0,0,0,0,0,0,0,0,0,0,0,0,0,0,0,0,0,0,0,0,0,0,0],"sum_hessian":[3.272318E2,8.0685646E1,2.4654616E2,8.7709055E0,7.191474E1,5.350705E1,1.9303911E2,3.6133573E0,5.1575484E0,4.34241E1,2.8490646E1,3.0706821E1,2.2800226E1,1.7598889E2,1.7050207E1,1.3904219E0,2.2229354E0,2.323336E0,2.8342125E0,3.0790552E1,1.2633545E1,1.2163795E1,1.632685E1,2.9289034E1,1.4177871E0,1.2865922E1,9.934304E0,4.5408E1,1.305809E2,7.076431E0,9.973776E0,1.7336233E0,2.9056929E1,7.6895747E0,4.9439697E0,2.628344E0,9.535451E0,2.7364857E0,1.3590365E1,1.6728704E1,1.2560329E1,5.9841766E0,6.881746E0,4.793051E0,5.141253E0,1.0038853E1,3.536915E1,4.4940426E1,8.564047E1,2.2600546E0,4.816376E0,7.743316E0,2.2304595E0],"tree_param":{"num_deleted":"0","num_feature":"20","num_nodes":"53","size_leaf_vector":"1"}},{"base_weights":[-2.0536385E-1,-2.750905E-1,-2.346674E-3,-2.1395376E-2,-3.420926E-1,1.1145505E-1,-3.418186E-1,4.0035564E-1,-1.6853368E-1,-1.367012E-1,-4.260177E-1,8.4713876E-2,3.9803315E-2,-4.5165855E-1,3.5623293E-2,-3.9307762E-2,9.8469816E-2,6.8139754E-2,-2.604544E-1,1.7323856E-1,-2.5068024E-1,-2.332642E-1,-5.468589E-1,-2.5044987E-1,2.0063153E-1,-5.409871E-1,1.3487481E-2,4.2993665E-2,-5.554361E-2,-5.8212873E-2,-6.237175E-3,8.800866E-2,-8.683647E-3,-3.1155823E-2,8.5537665E-2,1.6005008E-2,-3.7462555E-2,-1.3169079E-2,-5.9673913E-2,-5.4739054E-2,2.924725E-3,4.288725E-2,-1.9152123E-2,2.2411167E-3,-5.933432E-2],"categories":[],"categories_nodes":[],"categories_segments":[],"categories_sizes":[],"default_left":[0,0,0,0,0,0,0,0,0,0,0,0,0,0,0,0,0,0,0,0,0,0,0,0,0,0,0,0,0,0,0,0,0,0,0,0,0,0,0,0,0,0,0,0,0],"id":10,"left_children":[1,3,5,7,9,11,13,15,17,19,21,-1,23,25,-1,27,-1,-1,29,31,33,35,37,39,41,43,-1,-1,-1,-1,-1,-1,-1,-1,-1,-1,-1,-1,-1,-1,-1,-1,-1,-1,-1],"loss_changes":[4.3258715E0,3.8596363E0,3.0956476E0,3.083138E0,3.0427399E0,3.1305442E0,1.7033005E0,3.3439567E0,3.0471184E0,1.9389553E0,2.8361835E0,0E0,2.6527023E0,1.0067523E0,0E0,2.2497234E0,0E0,0E0,2.1217952E0,2.8372622E0,2.9355748E0,2.8830056E0,1.5256157E0,1.7038041E0,3.3426447E0,4.7541285E-1,0E0,0E0,0E0,0E0,0E0,0E0,0E0,0E0,0E0,0E0,0E0,0E0,0E0,0E0,0E0,0E0,0E0,0E0,0E0],"parents":[2147483647,0,0,1,1,2,2,3,3,4,4,5,5,6,6,7,7,8,8,9,9,10,10,12,12,13,13,15,15,18,18,19,19,20,20,21,21,22,22,23,23,24,24,25,25],"right_children":[2,4,6,8,10,12,14,16,18,20,22,-1,24,26,-1,28,-1,-1,30,32,34,36,38,40,42,44,-1,-1,-1,-1,-1,-1,-1,-1,-1,-1,-1,-1,-1,-1,-1,-1,-1,-1,-1],"split_conditions":[5.54E0,8.55E-1,1.414E0,2.6E-1,1E0,4.61E-1,7.223E0,1.75E-1,5.63E-1,3.77E-1,3.87E-1,8.4713876E-2,1.1707E1,1.95E0,3.5623293E-2,1.361E0,9.8469816E-2,6.8139754E-2,1.14E0,-8E-1,1.8248E1,4E0,1.023E0,5.38E-1,5.738E0,9.072E0,1.3487481E-2,4.2993665E-2,-5.554361E-2,-5.8212873E-2,-6.237175E-3,8.800866E-2,-8.683647E-3,-3.1155823E-2,8.5537665E-2,1.6005008E-2,-3.7462555E-2,-1.3169079E-2,-5.9673913E-2,-5.4739054E-2,2.924725E-3,4.288725E-2,-1.9152123E-2,2.2411167E-3,-5.933432E-2],"split_indices":[3,6,16,15,0,7,3,15,7,16,14,0,8,14,0,0,0,0,1,12,8,4,6,16,9,2,0,0,0,0,0,0,0,0,0,0,0,0,0,0,0,0,0,0,0],"split_type":[0,0,0,0,0,0,0,0,0,0,0,0,0,0,0,0,0,0,0,0,0,0,0,0,0,0,0,0,0,0,0,0,0,0,0,0,0,0,0,0,0,0,0,0,0],"sum_hessian":[3.046378E2,2.2649327E2,7.814453E1,4.759607E1,1.788972E2,5.902812E1,1.9116411E1,1.1865203E1,3.5730865E1,5.265719E1,1.26240005E2,4.2782464E0,5.474987E1,1.682235E1,2.2940621E0,7.3030605E0,4.562143E0,2.8613095E0,3.2869556E1,1.4018146E1,3.863904E1,4.977475E1,7.6465256E1,1.9321795E1,3.5428074E1,1.4666333E1,2.1560156E0,3.9127407E0,3.3903198E0,1.1787898E1,2.1081657E1,3.1292648E0,1.0888881E1,3.730412E1,1.3349229E0,1.3124848E1,3.6649902E1,8.591949E0,6.787331E1,8.907771E0,1.0414024E1,2.2335007E1,1.3093069E1,1.2956753E0,1.3370658E1],"tree_param":{"num_deleted":"0","num_feature":"20","num_nodes":"45","size_leaf_vector":"1"}},{"base_weights":[-3.406883E-2,2.6264372E-1,-1.5838394E-1,4.7594568E-1,1.9718865E-2,-3.7920233E-2,-3.6357498E-1,3.7429968E-1,1.00599065E-1,1.0473743E-1,-4.6355063E-1,-1.7104913E-1,1.9383715E-1,3.6256027E-1,-4.061065E-1,8.3111835E-1,2.6734865E-1,2.1540025E-1,-3.130218E-1,3.8004254E-3,-5.840381E-2,-3.9323935E-1,2.5354374E-2,9.679825E-2,8.473275E-1,7.068794E-2,-3.8900994E-2,-4.9970692E-1,-3.91178E-2,3.0310947E-2,9.055024E-2,8.1397295E-3,6.852146E-2,-1.6267737E-2,4.0988725E-2,3.5145074E-2,-6.1837133E-2,-4.920901E-2,8.566409E-3,4.4583987E-2,-8.52515E-3,3.840366E-2,-9.559569E-3,-9.712111E-4,1.0688096E-1,-6.122398E-2,-2.699692E-2,8.0684625E-2,-1.6623756E-2],"categories":[],"categories_nodes":[],"categories_segments":[],"categories_sizes":[],"default_left":[0,0,0,0,0,0,0,0,0,0,0,0,0,0,0,0,0,0,0,0,0,0,0,0,0,0,0,0,0,0,0,0,0,0,0,0,0,0,0,0,0,0,0,0,0,0,0,0,0],"id":11,"left_children":[1,3,5,7,9,11,13,15,-1,17,19,21,23,25,27,29,31,33,35,-1,-1,37,39,41,43,-1,-1,45,47,-1,-1,-1,-1,-1,-1,-1,-1,-1,-1,-1,-1,-1,-1,-1,-1,-1,-1,-1,-1],"loss_changes":[1.1612069E1,4.809334E0,5.465889E0,2.2889652E0,1.8778275E0,4.3773036E0,2.6762457E0,1.8838215E0,0E0,1.8554845E0,4.3584836E-1,3.9357054E0,3.2053127E0,1.5842371E0,2.653903E0,2.808094E-2,2.77279E0,2.358623E0,1.9434562E0,0E0,0E0,2.0431867E0,2.3024936E0,2.5934901E0,1.2581601E0,0E0,0E0,1.4357328E0,1.9516672E0,0E0,0E0,0E0,0E0,0E0,0E0,0E0,0E0,0E0,0E0,0E0,0E0,0E0,0E0,0E0,0E0,0E0,0E0,0E0,0E0],"parents":[2147483647,0,0,1,1,2,2,3,3,4,4,5,5,6,6,7,7,9,9,10,10,11,11,12,12,13,13,14,14,15,15,16,16,17,17,18,18,21,21,22,22,23,23,24,24,27,27,28,28],"right_children":[2,4,6,8,10,12,14,16,-1,18,20,22,24,26,28,30,32,34,36,-1,-1,38,40,42,44,-1,-1,46,48,-1,-1,-1,-1,-1,-1,-1,-1,-1,-1,-1,-1,-1,-1,-1,-1,-1,-1,-1,-1],"split_conditions":[-5.18E-1,1.0957E1,1.3173E1,6E0,6.886E0,4.797E0,3E-2,6.96E-1,1.00599065E-1,-7.11E-1,1.137E1,1.042E0,4E0,1.983E0,5.896E0,7.66E-1,2.102E0,4.791E0,4.522E0,3.8004254E-3,-5.840381E-2,1.4E1,8.33E-1,1.2494E1,2.6E-1,7.068794E-2,-3.8900994E-2,1.5914E1,4.7E-2,3.0310947E-2,9.055024E-2,8.1397295E-3,6.852146E-2,-1.6267737E-2,4.0988725E-2,3.5145074E-2,-6.1837133E-2,-4.920901E-2,8.566409E-3,4.4583987E-2,-8.52515E-3,3.840366E-2,-9.559569E-3,-9.712111E-4,1.0688096E-1,-6.122398E-2,-2.699692E-2,8.0684625E-2,-1.6623756E-2],"split_indices":[12,2,2,13,3,9,14,14,0,12,8,6,13,7,9,1,16,3,3,0,0,4,7,8,15,0,0,2,15,0,0,0,0,0,0,0,0,0,0,0,0,0,0,0,0,0,0,0,0],"split_type":[0,0,0,0,0,0,0,0,0,0,0,0,0,0,0,0,0,0,0,0,0,0,0,0,0,0,0,0,0,0,0,0,0,0,0,0,0,0,0,0,0,0,0,0,0,0,0,0,0],"sum_hessian":[3.1268314E2,9.199612E1,2.2068703E2,4.8473965E1,4.3522152E1,1.397987E2,8.088831E1,4.21056E1,6.368367E0,3.7677128E1,5.845027E0,8.895947E1,5.0839237E1,4.0593333E0,7.682899E1,6.703214E0,3.540238E1,3.0169683E1,7.5074425E0,1.2647624E0,4.5802646E0,4.1269413E1,4.7690056E1,4.526571E1,5.573528E0,2.8247056E0,1.2346276E0,6.0927734E1,1.5901248E1,1.4543753E0,5.248839E0,2.5326723E1,1.007566E1,1.0303502E1,1.9866182E1,2.3161905E0,5.1912518E0,3.4185608E1,7.0838065E0,9.300784E0,3.8389275E1,1.7757782E1,2.7507927E1,1.340916E0,4.232612E0,3.977817E1,2.1149565E1,1.378747E0,1.4522501E1],"tree_param":{"num_deleted":"0","num_feature":"20","num_nodes":"49","size_leaf_vector":"1"}},{"base_weights":[2.0568858E-1,-4.271007E-2,2.856122E-1,7.92639E-2,-7.320412E-2,2.8000802E-2,3.382709E-1,-1.7797907E-1,1.8022855E-1,-7.8559294E-2,6.217895E-1,3.7395623E-1,-5.7245262E-2,-4.0363023E-1,-9.865257E-3,-5.5782713E-2,3.3067206E-1,-2.3092672E-1,3.5549408E-1,4.555974E-3,9.130006E-2,-9.026898E-3,3.9798686E-1,-3.9844483E-1,1.9480789E-1,-5.5701446E-2,1.1252336E-3,-1.5445748E-2,3.727597E-2,9.191982E-3,6.409632E-2,-4.2211036E-3,-5.0727796E-2,-4.4421747E-2,5.6348976E-2,3.7904914E-2,-4.7719084E-2,3.172848E-2,5.386699E-2,8.058482E-3,-6.014985E-2,4.27681E-2,-5.1140644E-2],"categories":[],"categories_nodes":[],"categories_segments":[],"categories_sizes":[],"default_left":[0,0,0,0,0,0,0,0,0,0,0,0,0,0,0,0,0,0,0,0,0,0,0,0,0,0,0,0,0,0,0,0,0,0,0,0,0,0,0,0,0,0,0],"id":12,"left_children":[1,3,5,-1,7,9,11,13,15,17,19,21,23,25,27,-1,29,31,33,-1,-1,35,37,39,41,-1,-1,-1,-1,-1,-1,-1,-1,-1,-1,-1,-1,-1,-1,-1,-1,-1,-1],"loss_changes":[6.561535E0,2.1258323E0,3.3780613E0,0E0,2.135966E0,2.7994995E0,2.9464912E0,2.141635E0,2.812913E0,2.5784075E0,1.0871503E0,1.7543087E0,1.6272111E0,1.541354E0,1.9074912E0,0E0,1.4443505E0,1.4672278E0,1.9471157E0,0E0,0E0,2.3990586E0,1.8615494E0,8.250445E-1,2.0334535E0,0E0,0E0,0E0,0E0,0E0,0E0,0E0,0E0,0E0,0E0,0E0,0E0,0E0,0E0,0E0,0E0,0E0,0E0],"parents":[2147483647,0,0,1,1,2,2,4,4,5,5,6,6,7,7,8,8,9,9,10,10,11,11,12,12,13,13,14,14,16,16,17,17,18,18,21,21,22,22,23,23,24,24],"right_children":[2,4,6,-1,8,10,12,14,16,18,20,22,24,26,28,-1,30,32,34,-1,-1,36,38,40,42,-1,-1,-1,-1,-1,-1,-1,-1,-1,-1,-1,-1,-1,-1,-1,-1,-1,-1],"split_conditions":[-5.71E-1,-8E0,8.25E-1,7.92639E-2,5.676E0,2E0,6.591E0,5E0,7.95E-1,1.094E0,4E-2,3E-2,7.161E0,1.4337E1,1.677E0,-5.5782713E-2,1.1691E1,1.53E0,1.0661E1,4.555974E-3,9.130006E-2,1.235E0,1.3493E1,1.032E0,7.47E-1,-5.5701446E-2,1.1252336E-3,-1.5445748E-2,3.727597E-2,9.191982E-3,6.409632E-2,-4.2211036E-3,-5.0727796E-2,-4.4421747E-2,5.6348976E-2,3.7904914E-2,-4.7719084E-2,3.172848E-2,5.386699E-2,8.058482E-3,-6.014985E-2,4.27681E-2,-5.1140644E-2],"split_indices":[12,13,7,0,9,6,9,10,1,16,12,14,9,2,1,0,2,0,8,0,0,1,2,7,15,0,0,0,0,0,0,0,0,0,0,0,0,0,0,0,0,0,0],"split_type":[0,0,0,0,0,0,0,0,0,0,0,0,0,0,0,0,0,0,0,0,0,0,0,0,0,0,0,0,0,0,0,0,0,0,0,0,0,0,0,0,0,0,0],"sum_hessian":[3.288929E2,8.017588E1,2.4871704E2,1.9434727E0,7.823241E1,4.247195E1,2.062451E2,5.556024E1,2.2672167E1,3.6745396E1,5.726555E0,1.8922668E2,1.701841E1,2.3122747E1,3.2437496E1,3.3804162E0,1.9291752E1,2.7544367E1,9.201029E0,2.3107133E0,3.4158413E0,1.1209053E1,1.7801764E2,6.983789E0,1.0034619E1,1.6631433E1,6.4913125E0,2.397411E1,8.463386E0,1.1635274E1,7.656477E0,1.7052347E1,1.0492021E1,1.6647218E0,7.5363073E0,6.2328196E0,4.9762335E0,1.15193054E2,6.2824577E1,2.258599E0,4.72519E0,7.842854E0,2.1917658E0],"tree_param":{"num_deleted":"0","num_feature":"20","num_nodes":"43","size_leaf_vector":"1"}},{"base_weights":[-1.9280928E-1,-2.6036608E-1,1.7666445E-3,-1.7719833E-2,-3.2537732E-1,9.67259E-2,-3.6658055E-1,3.8461542E-1,-1.6039054E-1,-1.26446E-1,-4.078656E-1,-2.0892489E-1,2.1382678E-1,-5.0710857E-1,3.3814233E-2,-8.995291E-2,8.641552E-1,6.370007E-2,-2.4887349E-1,-3.702293E-1,1.6548142E-2,-2.1857215E-1,-5.282884E-1,-6.957159E-3,-6.0391665E-2,-5.366815E-2,2.772694E-1,-6.3645706E-2,-1.4471305E-3,3.0542722E-2,-5.250422E-2,1.09331064E-1,-1.2650818E-3,-3.9983638E-2,1.4495678E-2,4.712998E-3,-5.2004885E-2,8.302461E-2,-1.15317665E-2,1.5708389E-2,-3.5692107E-2,-1.2446985E-2,-5.7808995E-2,4.1273396E-2,-2.882067E-2,3.626852E-2,-2.1182707E-2,-4.322518E-2,5.055354E-2],"categories":[],"categories_nodes":[],"categories_segments":[],"categories_sizes":[],"default_left":[0,0,0,0,0,0,0,0,0,0,0,0,0,0,0,0,0,0,0,0,0,0,0,0,0,0,0,0,0,0,0,0,0,0,0,0,0,0,0,0,0,0,0,0,0,0,0,0,0],"id":13,"left_children":[1,3,5,7,9,11,13,15,17,19,21,23,25,27,-1,29,31,-1,33,35,37,39,41,43,-1,-1,45,-1,47,-1,-1,-1,-1,-1,-1,-1,-1,-1,-1,-1,-1,-1,-1,-1,-1,-1,-1,-1,-1],"loss_changes":[3.9595528E0,3.5210285E0,2.7852633E0,2.8342235E0,2.8409557E0,2.3100753E0,1.7878733E0,3.0221777E0,2.7241E0,1.8577696E0,2.7146645E0,1.4347837E0,2.3512313E0,9.1530824E-1,0E0,1.4348348E0,1.3258228E0,0E0,2.0466573E0,1.2551064E0,3.790756E0,2.653557E0,1.4398823E0,1.6471721E0,0E0,0E0,1.8861563E0,0E0,1.0606406E0,0E0,0E0,0E0,0E0,0E0,0E0,0E0,0E0,0E0,0E0,0E0,0E0,0E0,0E0,0E0,0E0,0E0,0E0,0E0,0E0],"parents":[2147483647,0,0,1,1,2,2,3,3,4,4,5,5,6,6,7,7,8,8,9,9,10,10,11,11,12,12,13,13,15,15,16,16,18,18,19,19,20,20,21,21,22,22,23,23,26,26,28,28],"right_children":[2,4,6,8,10,12,14,16,18,20,22,24,26,28,-1,30,32,-1,34,36,38,40,42,44,-1,-1,46,-1,48,-1,-1,-1,-1,-1,-1,-1,-1,-1,-1,-1,-1,-1,-1,-1,-1,-1,-1,-1,-1],"split_conditions":[5.54E0,8.55E-1,1.634E0,2.6E-1,1E0,4E0,7.061E0,1.46E-1,5.63E-1,1.058E0,3.87E-1,5.97E-1,7.57E-1,9E0,3.3814233E-2,1.361E0,4.872E0,6.370007E-2,2.067E0,9.71E-1,1.172E0,4E0,1.023E0,-2.8E-1,-6.0391665E-2,-5.366815E-2,1.766E0,-6.3645706E-2,1.2397E1,3.0542722E-2,-5.250422E-2,1.09331064E-1,-1.2650818E-3,-3.9983638E-2,1.4495678E-2,4.712998E-3,-5.2004885E-2,8.302461E-2,-1.15317665E-2,1.5708389E-2,-3.5692107E-2,-1.2446985E-2,-5.7808995E-2,4.1273396E-2,-2.882067E-2,3.626852E-2,-2.1182707E-2,-4.322518E-2,5.055354E-2],"split_indices":[3,6,16,15,0,10,3,15,7,7,14,15,6,10,0,0,3,0,7,1,7,4,6,12,0,0,7,0,8,0,0,0,0,0,0,0,0,0,0,0,0,0,0,0,0,0,0,0,0],"split_type":[0,0,0,0,0,0,0,0,0,0,0,0,0,0,0,0,0,0,0,0,0,0,0,0,0,0,0,0,0,0,0,0,0,0,0,0,0,0,0,0,0,0,0,0,0,0,0,0,0],"sum_hessian":[3.0018777E2,2.2257245E2,7.761533E1,4.7300774E1,1.7527168E2,6.2293568E1,1.5321766E1,1.1938382E1,3.536239E1,5.211718E1,1.231545E2,1.7037914E1,4.5255653E1,1.30082245E1,2.3135421E0,6.4086194E0,5.5297627E0,2.9128861E0,3.2449505E1,1.8680552E1,3.343663E1,4.897904E1,7.417546E1,1.1946849E1,5.091066E0,2.9459982E0,4.2309654E1,1.0152538E1,2.8556857E0,3.513656E0,2.8949637E0,4.188234E0,1.3415291E0,2.344668E1,9.002823E0,5.1154966E0,1.3565056E1,3.9243968E0,2.9512232E1,1.3146686E1,3.583235E1,8.527675E0,6.564779E1,4.606041E0,7.340808E0,3.623928E1,6.0703716E0,1.6235172E0,1.2321684E0],"tree_param":{"num_deleted":"0","num_feature":"20","num_nodes":"49","size_leaf_vector":"1"}},{"base_weights":[-3.1407956E-2,2.2310574E-1,-1.5701874E-1,4.1463462E-1,-3.177657E-3,-1.9631428E-1,4.78831E-1,2.4541363E-1,6.7245156E-1,-2.758837E-1,1.3771276E-1,-6.136363E-4,-3.02094E-1,7.354478E-1,-5.037688E-2,4.0003985E-1,-2.442627E-1,1.97372E-1,7.933185E-1,1.5869538E-1,-4.8799214E-1,-4.592753E-2,4.185289E-1,1.08530834E-1,-3.99071E-1,-3.4886345E-1,2.4087234E-1,9.319125E-1,-1.293339E-2,6.75704E-2,1.3846323E-2,3.9087445E-2,-4.0755484E-2,-4.4004403E-2,4.953098E-2,9.167882E-2,2.3196593E-3,7.226682E-2,-1.6087092E-2,-6.397113E-2,1.0956714E-2,2.9297411E-2,-3.374825E-2,6.163412E-2,-5.0682377E-2,5.947367E-2,1.2340592E-3,4.1821066E-2,-5.0701495E-2,-4.542642E-2,-1.3230448E-2,-1.7808197E-2,7.394656E-2,3.7508536E-2,1.0759776E-1],"categories":[],"categories_nodes":[],"categories_segments":[],"categories_sizes":[],"default_left":[0,0,0,0,0,0,0,0,0,0,0,0,0,0,0,0,0,0,0,0,0,0,0,0,0,0,0,0,0,0,0,0,0,0,0,0,0,0,0,0,0,0,0,0,0,0,0,0,0,0,0,0,0,0,0],"id":14,"left_children":[1,3,5,7,9,11,13,15,17,19,21,23,25,27,-1,29,31,33,35,37,39,41,43,45,47,49,51,53,-1,-1,-1,-1,-1,-1,-1,-1,-1,-1,-1,-1,-1,-1,-1,-1,-1,-1,-1,-1,-1,-1,-1,-1,-1,-1,-1],"loss_changes":[9.993413E0,4.4802866E0,5.319818E0,2.2772036E0,1.8963276E0,4.092133E0,3.5132904E0,2.7758782E0,1.0841703E0,1.6268586E0,1.6982033E0,3.103378E0,3.3426685E0,1.8686881E0,0E0,1.8721757E0,1.104078E0,1.3030242E0,1.5851469E0,1.2458844E0,1.1164277E0,2.1329443E0,2.6868236E0,2.6126237E0,1.5656381E0,2.6459427E0,2.381036E0,2.7879715E-1,0E0,0E0,0E0,0E0,0E0,0E0,0E0,0E0,0E0,0E0,0E0,0E0,0E0,0E0,0E0,0E0,0E0,0E0,0E0,0E0,0E0,0E0,0E0,0E0,0E0,0E0,0E0],"parents":[2147483647,0,0,1,1,2,2,3,3,4,4,5,5,6,6,7,7,8,8,9,9,10,10,11,11,12,12,13,13,15,15,16,16,17,17,18,18,19,19,20,20,21,21,22,22,23,23,24,24,25,25,26,26,27,27],"right_children":[2,4,6,8,10,12,14,16,18,20,22,24,26,28,-1,30,32,34,36,38,40,42,44,46,48,50,52,54,-1,-1,-1,-1,-1,-1,-1,-1,-1,-1,-1,-1,-1,-1,-1,-1,-1,-1,-1,-1,-1,-1,-1,-1,-1,-1,-1],"split_conditions":[-4.58E-1,1.0957E1,9E0,9.641E0,1.826E0,1.056E0,4.9E1,1.61E0,1.539E0,2.82E-1,1.511E0,1.4629E1,6.73E0,9.871E0,-5.037688E-2,2.373E0,-1.824E0,-6.62E-1,5.896E0,-7.11E-1,1.426E0,1E0,1.648E0,8.31E-1,4.16E0,1.392E0,6E0,3.441E0,-1.293339E-2,6.75704E-2,1.3846323E-2,3.9087445E-2,-4.0755484E-2,-4.4004403E-2,4.953098E-2,9.167882E-2,2.3196593E-3,7.226682E-2,-1.6087092E-2,-6.397113E-2,1.0956714E-2,2.9297411E-2,-3.374825E-2,6.163412E-2,-5.0682377E-2,5.947367E-2,1.2340592E-3,4.1821066E-2,-5.0701495E-2,-4.542642E-2,-1.3230448E-2,-1.7808197E-2,7.394656E-2,3.7508536E-2,1.0759776E-1],"split_indices":[12,2,13,2,6,7,4,7,6,15,1,2,9,2,0,3,12,12,9,12,16,1,15,0,3,6,4,9,0,0,0,0,0,0,0,0,0,0,0,0,0,0,0,0,0,0,0,0,0,0,0,0,0,0,0],"split_type":[0,0,0,0,0,0,0,0,0,0,0,0,0,0,0,0,0,0,0,0,0,0,0,0,0,0,0,0,0,0,0,0,0,0,0,0,0,0,0,0,0,0,0,0,0,0,0,0,0,0,0,0,0,0,0],"sum_hessian":[3.104947E2,1.0234538E2,2.081493E2,5.4978542E1,4.736684E1,1.966854E2,1.1463908E1,3.437079E1,2.0607756E1,1.5808986E1,3.1557854E1,6.9363464E1,1.2732193E2,9.289406E0,2.1745028E0,2.6261261E1,8.109527E0,4.7135706E0,1.5894185E1,5.267818E0,1.0541168E1,1.9585999E1,1.1971854E1,5.5020115E1,1.4343352E1,1.175537E2,9.768224E0,7.5064354E0,1.7829701E0,1.2015479E1,1.4245783E1,1.3734964E0,6.7360306E0,1.3494836E0,3.3640869E0,1.3533915E1,2.3602698E0,1.4490759E0,3.818742E0,8.350461E0,2.1907072E0,9.055305E0,1.0530695E1,1.0138492E1,1.8333621E0,8.2312565E0,4.678886E1,1.3380635E0,1.3005289E1,7.833155E1,3.9222157E1,5.657344E0,4.11088E0,2.2836115E0,5.222824E0],"tree_param":{"num_deleted":"0","num_feature":"20","num_nodes":"55","size_leaf_vector":"1"}},{"base_weights":[1.8924674E-1,1.7687766E-2,2.8777647E-1,3.8847902E-1,-3.963295E-2,4.2526975E-1,1.8591979E-1,-1.9129035E-1,5.717434E-1,-1.6701673E-1,1.3874084E-1,3.4126502E-1,6.897392E-1,3.697471E-1,4.1676246E-2,-5.5591244E-2,4.0418264E-2,7.567589E-1,-2.1472355E-2,-7.9792924E-2,-6.3633E-2,6.921412E-1,4.706219E-2,1.7678382E-1,5.748118E-1,1.0881527E-1,8.8042283E-1,4.595141E-1,-2.8479254E-1,-1.2604629E-2,7.763266E-2,8.781297E-2,-3.1282043E-3,-5.262772E-2,1.6433842E-3,1.9388106E-2,8.534372E-2,-1.14879E-2,3.934614E-2,6.746312E-2,4.452272E-4,-2.2857053E-2,6.4298235E-2,-4.5084618E-2,3.6284734E-2,1.043234E-1,5.3323805E-2,-7.791976E-3,5.4896403E-2,6.6104457E-3,-6.0511447E-2,-3.829312E-2,1.7248232E-2],"categories":[],"categories_nodes":[],"categories_segments":[],"categories_sizes":[],"default_left":[0,0,0,0,0,0,0,0,0,0,0,0,0,0,0,0,0,0,0,0,0,0,0,0,0,0,0,0,0,0,0,0,0,0,0,0,0,0,0,0,0,0,0,0,0,0,0,0,0,0,0,0,0],"id":15,"left_children":[1,3,5,7,9,11,13,15,17,19,21,23,25,27,29,-1,-1,31,-1,33,-1,35,37,39,41,43,45,47,49,51,-1,-1,-1,-1,-1,-1,-1,-1,-1,-1,-1,-1,-1,-1,-1,-1,-1,-1,-1,-1,-1,-1,-1],"loss_changes":[5.589592E0,2.604279E0,2.864254E0,1.8520467E0,2.4409037E0,1.7343769E0,3.2329626E0,1.2426898E0,2.012332E0,2.5088582E0,2.244233E0,2.5592318E0,2.163269E0,3.2881627E0,2.792072E0,0E0,0E0,1.0329685E0,0E0,2.3232021E0,0E0,3.4124184E-1,2.265019E0,3.6078908E0,1.690299E0,1.0423303E0,3.0362797E-1,2.3328733E0,8.3783334E-1,4.5867414E0,0E0,0E0,0E0,0E0,0E0,0E0,0E0,0E0,0E0,0E0,0E0,0E0,0E0,0E0,0E0,0E0,0E0,0E0,0E0,0E0,0E0,0E0,0E0],"parents":[2147483647,0,0,1,1,2,2,3,3,4,4,5,5,6,6,7,7,8,8,9,9,10,10,11,11,12,12,13,13,14,14,17,17,19,19,21,21,22,22,23,23,24,24,25,25,26,26,27,27,28,28,29,29],"right_children":[2,4,6,8,10,12,14,16,18,20,22,24,26,28,30,-1,-1,32,-1,34,-1,36,38,40,42,44,46,48,50,52,-1,-1,-1,-1,-1,-1,-1,-1,-1,-1,-1,-1,-1,-1,-1,-1,-1,-1,-1,-1,-1,-1,-1],"split_conditions":[-3.14E-1,-1E0,4.128E0,1.385E0,1.1861E1,1E1,5E0,1.447E0,2.99E0,5.051E0,3.29E0,7.24E-1,6.2E-2,2.067E0,2.302E0,-5.5591244E-2,4.0418264E-2,1.7505E1,-2.1472355E-2,7.92E-1,-6.3633E-2,-8.49E-1,5.851E0,1.73E-1,7.6E-2,0E0,9.82E-1,1.0085E1,1.13E0,1.1236E1,7.763266E-2,8.781297E-2,-3.1282043E-3,-5.262772E-2,1.6433842E-3,1.9388106E-2,8.534372E-2,-1.14879E-2,3.934614E-2,6.746312E-2,4.452272E-4,-2.2857053E-2,6.4298235E-2,-4.5084618E-2,3.6284734E-2,1.043234E-1,5.3323805E-2,-7.791976E-3,5.4896403E-2,6.6104457E-3,-6.0511447E-2,-3.829312E-2,1.7248232E-2],"split_indices":[12,13,9,6,2,10,4,7,6,3,9,15,14,7,1,0,0,8,0,1,0,12,9,15,14,13,15,8,15,2,0,0,0,0,0,0,0,0,0,0,0,0,0,0,0,0,0,0,0,0,0,0,0],"split_type":[0,0,0,0,0,0,0,0,0,0,0,0,0,0,0,0,0,0,0,0,0,0,0,0,0,0,0,0,0,0,0,0,0,0,0,0,0,0,0,0,0,0,0,0,0,0,0,0,0,0,0,0,0],"sum_hessian":[3.2997464E2,1.2080672E2,2.0916792E2,1.5401506E1,1.0540521E2,8.766135E1,1.2150658E2,3.6885943E0,1.1712913E1,6.152876E1,4.3876453E1,6.826757E1,1.9393778E1,5.2735672E1,6.8770905E1,2.3289557E0,1.3596387E0,9.512809E0,2.2001038E0,5.2872253E1,8.656506E0,5.304887E0,3.8571568E1,4.1087566E1,2.7180002E1,5.1808386E0,1.4212939E1,4.6637516E1,6.0981555E0,6.495448E1,3.816428E0,8.14416E0,1.3686488E0,8.582238E0,4.4290016E1,1.8358318E0,3.4690552E0,2.6739328E1,1.1832239E1,9.815862E0,3.1271704E1,1.941907E0,2.5238096E1,1.375561E0,3.8052778E0,8.310784E0,5.9021544E0,6.6730895E0,3.9964424E1,3.2889276E0,2.8092282E0,2.128933E1,4.366515E1],"tree_param":{"num_deleted":"0","num_feature":"20","num_nodes":"53","size_leaf_vector":"1"}},{"base_weights":[-1.8107784E-1,-1.4750344E-1,-5.591814E-1,2.9877976E-1,-1.7061642E-1,-6.331094E-2,4.4320215E-2,-5.2065935E-2,5.591674E-1,2.1815027E-1,-1.9820552E-1,-3.8762588E-2,4.424886E-2,-1.4225575E-2,7.45319E-1,5.141851E-1,-1.6697533E-1,-4.4801244E-1,-1.5163685E-1,-4.1931134E-2,3.8631607E-2,6.7863413E-3,9.8858334E-2,-3.7140694E-2,6.697622E-2,-4.4442996E-2,4.5012616E-2,-9.570662E-3,-6.2406607E-2,-3.752998E-2,-1.0480229E-2],"categories":[],"categories_nodes":[],"categories_segments":[],"categories_sizes":[],"default_left":[0,0,0,0,0,0,0,0,0,0,0,0,0,0,0,0,0,0,0,0,0,0,0,0,0,0,0,0,0,0,0],"id":16,"left_children":[1,3,5,7,9,-1,11,-1,13,15,17,-1,-1,19,21,23,25,27,29,-1,-1,-1,-1,-1,-1,-1,-1,-1,-1,-1,-1],"loss_changes":[3.6857815E0,2.8771582E0,1.092164E0,3.2473302E0,2.8440948E0,0E0,7.799047E-1,0E0,1.1842878E0,2.1129274E0,2.7746887E0,0E0,0E0,7.584626E-1,1.3040128E0,1.6675494E0,1.6523141E0,2.2899637E0,2.1339664E0,0E0,0E0,0E0,0E0,0E0,0E0,0E0,0E0,0E0,0E0,0E0,0E0],"parents":[2147483647,0,0,1,1,2,2,3,3,4,4,6,6,8,8,9,9,10,10,13,13,14,14,15,15,16,16,17,17,18,18],"right_children":[2,4,6,8,10,-1,12,-1,14,16,18,-1,-1,20,22,24,26,28,30,-1,-1,-1,-1,-1,-1,-1,-1,-1,-1,-1,-1],"split_conditions":[2.2E1,5.9E-2,5.661E0,3.767E0,5.53E-1,-6.331094E-2,1.203E0,-5.2065935E-2,3.734E0,1.652E0,8.36E-1,-3.8762588E-2,4.424886E-2,1.182E0,4E0,-4.06E-1,2.423E0,1.042E0,8.19E-1,-4.1931134E-2,3.8631607E-2,6.7863413E-3,9.8858334E-2,-3.7140694E-2,6.697622E-2,-4.4442996E-2,4.5012616E-2,-9.570662E-3,-6.2406607E-2,-3.752998E-2,-1.0480229E-2],"split_indices":[4,16,3,3,7,0,7,0,9,6,7,0,0,0,10,12,6,6,1,0,0,0,0,0,0,0,0,0,0,0,0],"split_type":[0,0,0,0,0,0,0,0,0,0,0,0,0,0,0,0,0,0,0,0,0,0,0,0,0,0,0,0,0,0,0],"sum_hessian":[2.9583972E2,2.7298923E2,2.2850475E1,1.2854664E1,2.6013458E2,2.0313093E1,2.5373821E0,2.8587213E0,9.995943E0,1.6779676E1,2.433549E2,1.2297676E0,1.3076147E0,2.6761925E0,7.319751E0,9.297698E0,7.481979E0,3.688316E1,2.0647174E2,1.3072505E0,1.3689419E0,2.2718766E0,5.0478745E0,1.1820166E0,8.115682E0,5.3544006E0,2.1275783E0,1.2804114E1,2.4079046E1,3.453469E1,1.7193704E2],"tree_param":{"num_deleted":"0","num_feature":"20","num_nodes":"31","size_leaf_vector":"1"}},{"base_weights":[-2.874709E-2,1.0181668E-1,-2.4882342E-1,3.3804107E-1,-1.8747365E-2,-7.0467E-2,-4.11698E-1,2.4170361E-1,6.586393E-1,-1.4624906E-1,2.0683546E-1,1.1442347E-1,-2.3998712E-1,-4.8309964E-1,1.571324E-1,1.0574198E-1,5.596494E-1,-9.300022E-2,8.457419E-1,-2.9187286E-1,1.0872432E-1,5.874973E-1,4.393707E-2,6.7494386E-1,-6.425174E-2,-3.1986818E-1,3.173899E-1,-5.718544E-1,-1.1546653E-1,4.8051143E-1,-4.7048047E-2,2.5060915E-3,7.1673445E-2,6.662605E-2,-1.3975662E-3,2.9691458E-2,-4.5345277E-2,8.991752E-2,2.7682243E-2,-4.1714888E-2,5.7992036E-3,2.879465E-2,-3.4449786E-2,-3.148778E-2,8.651525E-2,-7.36634E-3,7.722578E-2,-1.4174505E-2,1.0577961E-1,-2.4811491E-2,3.8338963E-2,-4.26465E-2,2.986372E-2,-1.0630789E-2,6.558792E-2,1.3807929E-2,-5.9353996E-2,-3.3137273E-2,9.355201E-2,-1.1201772E-2,7.904479E-2],"categories":[],"categories_nodes":[],"categories_segments":[],"categories_sizes":[],"default_left":[0,0,0,0,0,0,0,0,0,0,0,0,0,0,0,0,0,0,0,0,0,0,0,0,0,0,0,0,0,0,0,0,0,0,0,0,0,0,0,0,0,0,0,0,0,0,0,0,0,0,0,0,0,0,0,0,0,0,0,0,0],"id":17,"left_children":[1,3,5,7,9,11,13,15,17,19,21,23,25,27,29,31,33,35,37,39,41,43,45,47,49,51,53,55,57,59,-1,-1,-1,-1,-1,-1,-1,-1,-1,-1,-1,-1,-1,-1,-1,-1,-1,-1,-1,-1,-1,-1,-1,-1,-1,-1,-1,-1,-1,-1,-1],"loss_changes":[8.906067E0,5.5512276E0,3.3225756E0,1.8743806E0,3.7650445E0,1.7913073E0,2.5168085E0,2.1977067E0,2.1366625E0,3.1338289E0,2.9074953E0,2.8070314E0,1.4230491E0,1.684227E0,1.7395113E0,1.8455579E0,9.514203E-1,6.711881E-1,1.1029148E-1,2.3667698E0,2.6253006E0,3.8040886E0,2.98689E0,2.2626746E0,1.8924879E0,1.8718038E0,6.753086E-1,7.432785E-1,2.9614253E0,1.083171E0,0E0,0E0,0E0,0E0,0E0,0E0,0E0,0E0,0E0,0E0,0E0,0E0,0E0,0E0,0E0,0E0,0E0,0E0,0E0,0E0,0E0,0E0,0E0,0E0,0E0,0E0,0E0,0E0,0E0,0E0,0E0],"parents":[2147483647,0,0,1,1,2,2,3,3,4,4,5,5,6,6,7,7,8,8,9,9,10,10,11,11,12,12,13,13,14,14,15,15,16,16,17,17,18,18,19,19,20,20,21,21,22,22,23,23,24,24,25,25,26,26,27,27,28,28,29,29],"right_children":[2,4,6,8,10,12,14,16,18,20,22,24,26,28,30,32,34,36,38,40,42,44,46,48,50,52,54,56,58,60,-1,-1,-1,-1,-1,-1,-1,-1,-1,-1,-1,-1,-1,-1,-1,-1,-1,-1,-1,-1,-1,-1,-1,-1,-1,-1,-1,-1,-1,-1,-1],"split_conditions":[1.2821E1,-5.18E-1,3.4E-2,3E0,4.797E0,5.464E0,6.283E0,9.35E-1,5.68E-1,1.583E0,5.428E0,2.82E-1,1.994E0,1.6851E1,1.442E0,1.894E0,1.787E0,8.65E0,1.316E0,8E0,9E0,3.97E-1,4E0,3.4E-2,1.5178E1,-1.22E-1,1.4657E1,1.839E0,1.5144E1,1.036E0,-4.7048047E-2,2.5060915E-3,7.1673445E-2,6.662605E-2,-1.3975662E-3,2.9691458E-2,-4.5345277E-2,8.991752E-2,2.7682243E-2,-4.1714888E-2,5.7992036E-3,2.879465E-2,-3.4449786E-2,-3.148778E-2,8.651525E-2,-7.36634E-3,7.722578E-2,-1.4174505E-2,1.0577961E-1,-2.4811491E-2,3.8338963E-2,-4.26465E-2,2.986372E-2,-1.0630789E-2,6.558792E-2,1.3807929E-2,-5.9353996E-2,-3.3137273E-2,9.355201E-2,-1.1201772E-2,7.904479E-2],"split_indices":[2,12,12,13,9,3,9,15,0,0,9,15,16,2,6,1,15,2,15,10,10,15,13,15,8,12,2,9,8,7,0,0,0,0,0,0,0,0,0,0,0,0,0,0,0,0,0,0,0,0,0,0,0,0,0,0,0,0,0,0,0],"split_type":[0,0,0,0,0,0,0,0,0,0,0,0,0,0,0,0,0,0,0,0,0,0,0,0,0,0,0,0,0,0,0,0,0,0,0,0,0,0,0,0,0,0,0,0,0,0,0,0,0,0,0,0,0,0,0,0,0,0,0,0,0],"sum_hessian":[3.080671E2,1.9369301E2,1.14374084E2,6.484216E1,1.2885085E2,5.527626E1,5.9097824E1,5.1208344E1,1.36338215E1,8.254645E1,4.63044E1,2.6594957E1,2.8681301E1,5.264087E1,6.456955E0,3.680302E1,1.4405321E1,2.8176274E0,1.0816195E1,5.2447315E1,3.009913E1,1.3095722E1,3.320868E1,5.7570567E0,2.08379E1,2.545877E1,3.2225316E0,4.1956207E1,1.0684663E1,4.4159884E0,2.0409663E0,3.3429676E1,3.373345E0,1.2011444E1,2.393877E0,1.4381741E0,1.3794532E0,9.356893E0,1.4593012E0,3.847741E1,1.3969909E1,2.1830961E1,8.268168E0,3.0498135E0,1.0045908E1,2.9365887E1,3.8427913E0,2.0384538E0,3.718603E0,1.508688E1,5.751021E0,2.1980938E1,3.477832E0,1.73576E0,1.4867716E0,1.0845098E0,4.0871696E1,9.431777E0,1.2528851E0,1.7359052E0,2.6800835E0],"tree_param":{"num_deleted":"0","num_feature":"20","num_nodes":"61","size_leaf_vector":"1"}},{"base_weights":[1.7457919E-1,1.5370409E-2,2.6534835E-1,3.6637244E-1,-3.9348897E-2,3.923128E-1,1.7092115E-1,-1.8578152E-1,5.3932494E-1,-1.6000444E-1,1.2796733E-1,3.1367457E-1,6.396388E-1,3.3973384E-1,3.7092417E-2,-5.444621E-2,3.917184E-2,7.1263975E-1,-2.0871712E-2,-7.5548925E-2,-6.2345203E-2,-5.611777E-2,1.9129848E-1,1.5923886E-1,5.3236705E-1,9.7832575E-2,8.1620795E-1,4.2395645E-1,-2.8078973E-1,-1.475176E-2,7.302979E-2,8.247689E-2,-2.7820363E-3,1.9707272E-2,-2.283973E-2,6.398709E-4,4.708955E-2,6.296189E-2,-4.1650832E-4,7.0528076E-3,6.603434E-2,-4.433415E-2,3.4212213E-2,9.670841E-2,4.938483E-2,-8.207028E-3,5.0746758E-2,5.3383387E-3,-5.8827557E-2,-3.650273E-2,1.5714085E-2],"categories":[],"categories_nodes":[],"categories_segments":[],"categories_sizes":[],"default_left":[0,0,0,0,0,0,0,0,0,0,0,0,0,0,0,0,0,0,0,0,0,0,0,0,0,0,0,0,0,0,0,0,0,0,0,0,0,0,0,0,0,0,0,0,0,0,0,0,0,0,0],"id":18,"left_children":[1,3,5,7,9,11,13,15,17,19,21,23,25,27,29,-1,-1,31,-1,33,-1,-1,35,37,39,41,43,45,47,49,-1,-1,-1,-1,-1,-1,-1,-1,-1,-1,-1,-1,-1,-1,-1,-1,-1,-1,-1,-1,-1],"loss_changes":[4.787489E0,2.347183E0,2.4639359E0,1.6737614E0,2.1599371E0,1.5356035E0,2.762616E0,1.1814511E0,1.8086958E0,2.3803976E0,2.069561E0,2.269146E0,1.8883867E0,2.9515405E0,2.5136452E0,0E0,0E0,9.048376E-1,0E0,2.2784173E0,0E0,0E0,2.1641903E0,3.2520518E0,1.6331863E0,9.704192E-1,2.7048016E-1,2.0751123E0,7.587595E-1,4.017778E0,0E0,0E0,0E0,0E0,0E0,0E0,0E0,0E0,0E0,0E0,0E0,0E0,0E0,0E0,0E0,0E0,0E0,0E0,0E0,0E0,0E0],"parents":[2147483647,0,0,1,1,2,2,3,3,4,4,5,5,6,6,7,7,8,8,9,9,10,10,11,11,12,12,13,13,14,14,17,17,19,19,22,22,23,23,24,24,25,25,26,26,27,27,28,28,29,29],"right_children":[2,4,6,8,10,12,14,16,18,20,22,24,26,28,30,-1,-1,32,-1,34,-1,-1,36,38,40,42,44,46,48,50,-1,-1,-1,-1,-1,-1,-1,-1,-1,-1,-1,-1,-1,-1,-1,-1,-1,-1,-1,-1,-1],"split_conditions":[-3.14E-1,-1E0,4.128E0,1.385E0,1.1861E1,1E1,5E0,1.447E0,2.99E0,5.051E0,1.191E0,7.24E-1,6.2E-2,2.067E0,2.302E0,-5.444621E-2,3.917184E-2,1.7505E1,-2.0871712E-2,3.8E-1,-6.2345203E-2,-5.611777E-2,6E0,1.73E-1,1.788E0,0E0,9.82E-1,1.0085E1,1.13E0,1.1236E1,7.302979E-2,8.247689E-2,-2.7820363E-3,1.9707272E-2,-2.283973E-2,6.398709E-4,4.708955E-2,6.296189E-2,-4.1650832E-4,7.0528076E-3,6.603434E-2,-4.433415E-2,3.4212213E-2,9.670841E-2,4.938483E-2,-8.207028E-3,5.0746758E-2,5.3383387E-3,-5.8827557E-2,-3.650273E-2,1.5714085E-2],"split_indices":[12,13,9,6,2,10,4,7,6,3,6,15,14,7,1,0,0,8,0,15,0,0,10,15,9,13,15,8,15,2,0,0,0,0,0,0,0,0,0,0,0,0,0,0,0,0,0,0,0,0,0],"split_type":[0,0,0,0,0,0,0,0,0,0,0,0,0,0,0,0,0,0,0,0,0,0,0,0,0,0,0,0,0,0,0,0,0,0,0,0,0,0,0,0,0,0,0,0,0,0,0,0,0,0,0],"sum_hessian":[3.3056775E2,1.204566E2,2.1011115E2,1.5477737E1,1.0497886E2,8.827035E1,1.2184079E2,3.6740594E0,1.1803678E1,6.10198E1,4.395906E1,6.869635E1,1.9574001E1,5.3197914E1,6.8642876E1,2.3017004E0,1.3723592E0,9.621733E0,2.181945E0,5.2597755E1,8.422039E0,3.0381444E0,4.0920918E1,4.1276176E1,2.7420174E1,5.193061E0,1.43809395E1,4.711927E1,6.078643E0,6.4776985E1,3.86589E0,8.257436E0,1.3642972E0,1.879159E1,3.3806168E1,2.5247456E1,1.5673461E1,9.906332E0,3.1369844E1,6.286101E0,2.1134073E1,1.3616906E0,3.8313699E0,8.433662E0,5.9472775E0,6.677135E0,4.044214E1,3.3089213E0,2.7697213E0,2.0954075E1,4.382291E1],"tree_param":{"num_deleted":"0","num_feature":"20","num_nodes":"51","size_leaf_vector":"1"}},{"base_weights":[-1.7025526E-1,-1.3804299E-1,-5.435908E-1,-1.6013081E-1,3.0111495E-1,-6.190398E-2,4.8992194E-2,3.503912E-1,-1.7709751E-1,5.8109784E-1,-3.728822E-1,4.3313924E-2,-3.7731037E-2,-4.322591E-2,5.921793E-1,-3.6495417E-2,-2.471747E-1,-1.4464269E-2,7.9166405E-2,-5.1431116E-2,-1.5109855E-3,-3.021037E-3,9.911959E-2,-3.195245E-2,8.058378E-3,-3.8180482E-3,-3.100416E-2],"categories":[],"categories_nodes":[],"categories_segments":[],"categories_sizes":[],"default_left":[0,0,0,0,0,0,0,0,0,0,0,0,0,0,0,0,0,0,0,0,0,0,0,0,0,0,0],"id":19,"left_children":[1,3,5,7,9,-1,11,13,15,17,19,-1,-1,-1,21,23,25,-1,-1,-1,-1,-1,-1,-1,-1,-1,-1],"loss_changes":[3.446926E0,2.676363E0,1.0551414E0,2.3021836E0,2.7306142E0,0E0,7.391295E-1,1.8936663E0,2.4637418E0,1.6125515E0,2.2088462E-1,0E0,0E0,0E0,1.7767005E0,2.8307993E0,2.1864815E0,0E0,0E0,0E0,0E0,0E0,0E0,0E0,0E0,0E0,0E0],"parents":[2147483647,0,0,1,1,2,2,3,3,4,4,6,6,7,7,8,8,9,9,10,10,14,14,15,15,16,16],"right_children":[2,4,6,8,10,-1,12,14,16,18,20,-1,-1,-1,22,24,26,-1,-1,-1,-1,-1,-1,-1,-1,-1,-1],"split_conditions":[2.2E1,7.061E0,5.661E0,2.8E-2,7E0,-6.190398E-2,1.989E0,3.767E0,1.042E0,4.59E-1,1.434E0,4.3313924E-2,-3.7731037E-2,-4.322591E-2,1.1651E1,1.047E0,1.0359E1,-1.4464269E-2,7.9166405E-2,-5.1431116E-2,-1.5109855E-3,-3.021037E-3,9.911959E-2,-3.195245E-2,8.058378E-3,-3.8180482E-3,-3.100416E-2],"split_indices":[4,3,3,16,10,0,0,3,6,14,1,0,0,0,8,1,8,0,0,0,0,0,0,0,0,0,0],"split_type":[0,0,0,0,0,0,0,0,0,0,0,0,0,0,0,0,0,0,0,0,0,0,0,0,0,0,0],"sum_hessian":[2.9186295E2,2.6994153E2,2.1921442E1,2.576197E2,1.2321838E1,1.9405981E1,2.5154593E0,7.6542487E0,2.4996542E2,8.802892E0,3.5189464E0,1.3147147E0,1.2007445E0,1.6206295E0,6.0336194E0,8.36506E1,1.6631483E2,2.0500917E0,6.7528E0,2.2084138E0,1.3105326E0,2.718135E0,3.315484E0,2.397176E1,5.9678837E1,3.883139E1,1.27483444E2],"tree_param":{"num_deleted":"0","num_feature":"20","num_nodes":"27","size_leaf_vector":"1"}},{"base_weights":[-2.6178338E-2,9.603102E-2,-2.35645E-1,3.145042E-1,-1.6613534E-2,-6.435388E-2,-3.950309E-1,2.2412662E-1,6.157565E-1,-1.375356E-1,1.9484924E-1,1.12746835E-1,-2.2868586E-1,-4.6578944E-1,1.5053841E-1,9.6220754E-2,5.2141273E-1,-9.739305E-2,7.92785E-1,-4.0737692E-1,-5.616141E-3,5.4780537E-1,4.2095494E-2,6.369728E-1,-5.7768017E-2,-4.8404855E-1,-4.09398E-2,-5.5534965E-1,-1.03010185E-1,4.5898947E-1,-4.613603E-2,1.8572839E-3,6.80907E-2,6.811866E-2,1.3715959E-2,2.8991437E-2,-4.5266684E-2,8.42934E-2,2.5985409E-2,-4.909937E-2,1.4840471E-2,-8.069023E-3,5.734783E-2,-3.0556276E-2,8.0427915E-2,1.8410457E-2,-4.9564175E-2,-1.3530073E-2,9.8850995E-2,-2.3596367E-2,3.6671348E-2,-1.38223935E-2,-6.1700683E-2,-1.7316736E-2,5.2442737E-2,1.4320123E-2,-5.7748318E-2,-3.1703893E-2,8.968145E-2,6.26972E-4,8.653067E-2],"categories":[],"categories_nodes":[],"categories_segments":[],"categories_sizes":[],"default_left":[0,0,0,0,0,0,0,0,0,0,0,0,0,0,0,0,0,0,0,0,0,0,0,0,0,0,0,0,0,0,0,0,0,0,0,0,0,0,0,0,0,0,0,0,0,0,0,0,0,0,0,0,0,0,0,0,0,0,0,0,0],"id":20,"left_children":[1,3,5,7,9,11,13,15,17,19,21,23,25,27,29,31,33,35,37,39,41,43,45,47,49,51,53,55,57,59,-1,-1,-1,-1,-1,-1,-1,-1,-1,-1,-1,-1,-1,-1,-1,-1,-1,-1,-1,-1,-1,-1,-1,-1,-1,-1,-1,-1,-1,-1,-1],"loss_changes":[7.8683753E0,4.786186E0,3.0655994E0,1.6627502E0,3.3287327E0,1.6487522E0,2.3266096E0,1.9441822E0,1.931922E0,2.9429936E0,2.5320773E0,2.4958615E0,1.3828063E0,1.631854E0,1.6209941E0,1.7078934E0,8.613224E-1,6.5579087E-1,9.843445E-2,1.3347664E0,2.5063174E0,3.36062E0,2.699818E0,1.989357E0,1.7260312E0,4.804268E-1,1.4328896E0,7.238121E-1,2.7496421E0,9.9992883E-1,0E0,0E0,0E0,0E0,0E0,0E0,0E0,0E0,0E0,0E0,0E0,0E0,0E0,0E0,0E0,0E0,0E0,0E0,0E0,0E0,0E0,0E0,0E0,0E0,0E0,0E0,0E0,0E0,0E0,0E0,0E0],"parents":[2147483647,0,0,1,1,2,2,3,3,4,4,5,5,6,6,7,7,8,8,9,9,10,10,11,11,12,12,13,13,14,14,15,15,16,16,17,17,18,18,19,19,20,20,21,21,22,22,23,23,24,24,25,25,26,26,27,27,28,28,29,29],"right_children":[2,4,6,8,10,12,14,16,18,20,22,24,26,28,30,32,34,36,38,40,42,44,46,48,50,52,54,56,58,60,-1,-1,-1,-1,-1,-1,-1,-1,-1,-1,-1,-1,-1,-1,-1,-1,-1,-1,-1,-1,-1,-1,-1,-1,-1,-1,-1,-1,-1,-1,-1],"split_conditions":[1.2821E1,-5.18E-1,3.4E-2,3E0,4.797E0,5.464E0,6.283E0,9.35E-1,5.68E-1,9.21E-1,5.428E0,2.82E-1,3.8E-1,1.6851E1,1.442E0,1.894E0,5.235E0,-1.163E0,1.316E0,1.1651E1,1.2116E1,3.97E-1,2E0,3.4E-2,1.5178E1,1.86E-1,-1.37E-1,1.839E0,1.5144E1,1.226E0,-4.613603E-2,1.8572839E-3,6.80907E-2,6.811866E-2,1.3715959E-2,2.8991437E-2,-4.5266684E-2,8.42934E-2,2.5985409E-2,-4.909937E-2,1.4840471E-2,-8.069023E-3,5.734783E-2,-3.0556276E-2,8.0427915E-2,1.8410457E-2,-4.9564175E-2,-1.3530073E-2,9.8850995E-2,-2.3596367E-2,3.6671348E-2,-1.38223935E-2,-6.1700683E-2,-1.7316736E-2,5.2442737E-2,1.4320123E-2,-5.7748318E-2,-3.1703893E-2,8.968145E-2,6.26972E-4,8.653067E-2],"split_indices":[2,12,12,13,9,3,9,15,0,6,9,15,15,2,6,1,9,12,15,8,2,15,1,15,8,15,12,9,8,6,0,0,0,0,0,0,0,0,0,0,0,0,0,0,0,0,0,0,0,0,0,0,0,0,0,0,0,0,0,0,0],"split_type":[0,0,0,0,0,0,0,0,0,0,0,0,0,0,0,0,0,0,0,0,0,0,0,0,0,0,0,0,0,0,0,0,0,0,0,0,0,0,0,0,0,0,0,0,0,0,0,0,0,0,0,0,0,0,0,0,0,0,0,0,0],"sum_hessian":[3.0548898E2,1.9327051E2,1.1221847E2,6.514E1,1.2813051E2,5.476577E1,5.7452698E1,5.144897E1,1.36910305E1,8.173886E1,4.6391644E1,2.6509916E1,2.8255852E1,5.098619E1,6.4665074E0,3.689762E1,1.45513525E1,2.8121767E0,1.0878854E1,2.6153599E1,5.5585266E1,1.3231788E1,3.3159855E1,5.8350925E0,2.0674826E1,1.1303371E1,1.6952482E1,4.0465546E1,1.0520647E1,4.4654293E0,2.0010781E0,3.348278E1,3.4148383E0,9.731997E0,4.819356E0,1.4334488E0,1.378728E0,9.4115305E0,1.4673233E0,2.283471E1,3.3188887E0,4.9968044E1,5.6172204E0,3.0135078E0,1.021828E1,2.6752512E1,6.4073424E0,2.0176785E0,3.817414E0,1.4874628E1,5.800197E0,3.7053516E0,7.5980196E0,1.4301393E1,2.6510887E0,1.0747812E0,3.9390762E1,9.228123E0,1.2925242E0,2.5924003E0,1.8730289E0],"tree_param":{"num_deleted":"0","num_feature":"20","num_nodes":"61","size_leaf_vector":"1"}},{"base_weights":[1.6120079E-1,-3.9738517E-2,2.2414844E-1,-7.7949055E-2,5.416536E-1,-1.5820512E-1,2.5335896E-1,4.780373E-2,-3.2821548E-1,-9.667161E-3,8.877524E-2,2.5910565E-1,-3.3800417E-1,1.849047E-1,3.8626817E-1,-1.2973435E-1,3.6597362E-1,2.5030586E-1,-4.0493578E-1,4.960465E-1,-1.8565936E-2,-5.430533E-1,1.4570904E-1,-3.2331225E-2,2.3267728E-1,5.4538846E-1,1.7173173E-1,2.9582446E-2,-3.6745466E-2,5.0504256E-2,-4.9622547E-2,-3.4812912E-3,4.29838E-2,-6.4323485E-2,-1.917898E-2,-5.7928753E-3,7.7424064E-2,-6.2004805E-2,-2.5255266E-3,4.506776E-2,-2.1522878E-2,4.1991718E-2,-1.6944986E-2,3.8964976E-2,1.5458548E-2,2.5097732E-2,6.4240105E-2,2.493409E-2,-6.1704446E-2],"categories":[],"categories_nodes":[],"categories_segments":[],"categories_sizes":[],"default_left":[0,0,0,0,0,0,0,0,0,0,0,0,0,0,0,0,0,0,0,0,0,0,0,0,0,0,0,0,0,0,0,0,0,0,0,0,0,0,0,0,0,0,0,0,0,0,0,0,0],"id":21,"left_children":[1,3,5,7,9,11,13,15,17,-1,-1,19,21,23,25,27,29,31,33,35,-1,37,39,41,43,45,47,-1,-1,-1,-1,-1,-1,-1,-1,-1,-1,-1,-1,-1,-1,-1,-1,-1,-1,-1,-1,-1,-1],"loss_changes":[4.2043333E0,1.8187938E0,2.8626347E0,2.4048047E0,1.2031525E0,1.4795871E0,2.0681696E0,2.9508247E0,1.2338192E0,0E0,0E0,7.404556E-1,1.4081823E0,1.6382995E0,2.6041098E0,3.5207815E0,2.4892452E0,1.9952E-1,1.0402613E0,7.054335E-1,0E0,3.679526E-1,6.228965E-1,1.8822162E0,1.5202713E0,1.1215954E0,2.303351E0,0E0,0E0,0E0,0E0,0E0,0E0,0E0,0E0,0E0,0E0,0E0,0E0,0E0,0E0,0E0,0E0,0E0,0E0,0E0,0E0,0E0,0E0],"parents":[2147483647,0,0,1,1,2,2,3,3,4,4,5,5,6,6,7,7,8,8,11,11,12,12,13,13,14,14,15,15,16,16,17,17,18,18,19,19,21,21,22,22,23,23,24,24,25,25,26,26],"right_children":[2,4,6,8,10,12,14,16,18,-1,-1,20,22,24,26,28,30,32,34,36,-1,38,40,42,44,46,48,-1,-1,-1,-1,-1,-1,-1,-1,-1,-1,-1,-1,-1,-1,-1,-1,-1,-1,-1,-1,-1,-1],"split_conditions":[-5.71E-1,1.684E0,5.63E-1,6.66E-1,4.446E0,2.583E0,1.3493E1,7E0,7.81E-1,-9.667161E-3,8.877524E-2,1.03E0,1.145E0,9.66E-1,4.967E0,4E0,-7.11E-1,1E0,5E0,6.52E-1,-1.8565936E-2,6.407E0,1.472E0,7.33E-1,1.339E0,3.79E-1,9E0,2.9582446E-2,-3.6745466E-2,5.0504256E-2,-4.9622547E-2,-3.4812912E-3,4.29838E-2,-6.4323485E-2,-1.917898E-2,-5.7928753E-3,7.7424064E-2,-6.2004805E-2,-2.5255266E-3,4.506776E-2,-2.1522878E-2,4.1991718E-2,-1.6944986E-2,3.8964976E-2,1.5458548E-2,2.5097732E-2,6.4240105E-2,2.493409E-2,-6.1704446E-2],"split_indices":[12,15,7,15,2,3,2,10,14,0,0,15,16,7,9,4,12,13,10,1,0,3,16,7,7,16,10,0,0,0,0,0,0,0,0,0,0,0,0,0,0,0,0,0,0,0,0,0,0],"split_type":[0,0,0,0,0,0,0,0,0,0,0,0,0,0,0,0,0,0,0,0,0,0,0,0,0,0,0,0,0,0,0,0,0,0,0,0,0,0,0,0,0,0,0,0,0,0,0,0,0],"sum_hessian":[3.3068942E2,7.8970665E1,2.5171875E2,7.491312E1,4.05755E0,1.7552174E1,2.3416658E2,5.0398224E1,2.451489E1,1.6799066E0,2.377643E0,5.1524153E0,1.2399758E1,1.5613908E2,7.80275E1,3.2728207E1,1.7670017E1,2.6054573E0,2.1909433E1,3.2863622E0,1.866053E0,8.622113E0,3.777645E0,2.8205166E1,1.2793392E2,4.3914337E1,3.4113155E1,1.1642241E1,2.1085966E1,1.5572483E1,2.0975342E0,1.3181562E0,1.2873011E0,9.391662E0,1.2517772E1,1.3633186E0,1.9230436E0,7.334089E0,1.2880243E0,1.9128141E0,1.864831E0,6.082212E0,2.2122955E1,4.1176113E1,8.675781E1,1.1773001E1,3.214134E1,3.1679989E1,2.433165E0],"tree_param":{"num_deleted":"0","num_feature":"20","num_nodes":"49","size_leaf_vector":"1"}},{"base_weights":[-1.5982318E-1,-1.2891887E-1,-5.29192E-1,2.5232798E-1,-1.5389872E-1,-6.0606897E-2,5.1123198E-2,5.2071434E-1,-1.9252262E-1,-3.794015E-1,-1.1061162E-1,-3.6659777E-2,4.185724E-2,-3.4870416E-2,6.5639627E-1,-4.0152556E-1,4.037417E-2,2.4309066E-1,-4.704042E-1,4.4671765E-1,-1.2898144E-1,7.3773484E-4,8.642035E-2,6.194194E-3,-5.3857047E-2,-2.541045E-2,7.1824476E-2,-5.3934783E-2,7.2420347E-3,5.088856E-3,8.471704E-2,-3.498E-2,-8.467957E-3],"categories":[],"categories_nodes":[],"categories_segments":[],"categories_sizes":[],"default_left":[0,0,0,0,0,0,0,0,0,0,0,0,0,0,0,0,0,0,0,0,0,0,0,0,0,0,0,0,0,0,0,0,0],"id":22,"left_children":[1,3,5,7,9,-1,11,13,15,17,19,-1,-1,-1,21,23,-1,25,27,29,31,-1,-1,-1,-1,-1,-1,-1,-1,-1,-1,-1,-1],"loss_changes":[3.2300024E0,2.5906477E0,1.011847E0,2.1126833E0,2.4188128E0,0E0,6.8976104E-1,1.500891E0,1.0435276E0,2.390871E0,2.2373705E0,0E0,0E0,0E0,1.2983994E0,3.97842E-1,0E0,1.5491636E0,1.3639493E0,1.0692605E0,1.9943116E0,0E0,0E0,0E0,0E0,0E0,0E0,0E0,0E0,0E0,0E0,0E0,0E0],"parents":[2147483647,0,0,1,1,2,2,3,3,4,4,6,6,7,7,8,8,9,9,10,10,14,14,15,15,17,17,18,18,19,19,20,20],"right_children":[2,4,6,8,10,-1,12,14,16,18,20,-1,-1,-1,22,24,-1,26,28,30,32,-1,-1,-1,-1,-1,-1,-1,-1,-1,-1,-1,-1],"split_conditions":[2.2E1,4.81E-1,5.661E0,1.652E0,8.36E-1,-6.0606897E-2,1.203E0,-4.06E-1,2.423E0,7.84E-1,2.8E-2,-3.6659777E-2,4.185724E-2,-3.4870416E-2,4.062E0,6.53E-1,4.037417E-2,6.53E-1,6.73E0,1.2046E1,8.19E-1,7.3773484E-4,8.642035E-2,6.194194E-3,-5.3857047E-2,-2.541045E-2,7.1824476E-2,-5.3934783E-2,7.2420347E-3,5.088856E-3,8.471704E-2,-3.498E-2,-8.467957E-3],"split_indices":[4,7,3,6,7,0,7,12,6,6,16,0,0,0,9,16,0,7,9,8,1,0,0,0,0,0,0,0,0,0,0,0,0],"split_type":[0,0,0,0,0,0,0,0,0,0,0,0,0,0,0,0,0,0,0,0,0,0,0,0,0,0,0,0,0,0,0,0,0],"sum_hessian":[2.879357E2,2.6694962E2,2.0986082E1,1.5855708E1,2.510939E2,1.8491985E1,2.4940972E0,9.782944E0,6.072764E0,3.9186787E1,2.1190712E2,1.1682887E0,1.3258086E0,1.1086918E0,8.6742525E0,4.7384405E0,1.3343233E0,4.78492E0,3.4401867E1,6.0176387E0,2.0588948E2,2.3549197E0,6.319332E0,1.2064399E0,3.5320008E0,2.5655634E0,2.2193565E0,3.0530607E1,3.8712587E0,3.593101E0,2.4245374E0,3.325203E1,1.7263745E2],"tree_param":{"num_deleted":"0","num_feature":"20","num_nodes":"33","size_leaf_vector":"1"}},{"base_weights":[-2.3997895E-2,9.034951E-2,-2.2317004E-1,-3.0734403E-2,2.704723E-1,-5.905456E-2,-3.7904188E-1,-8.808678E-2,5.5879134E-1,3.2878405E-1,-5.9193462E-2,1.1067186E-1,-2.1819708E-1,-4.49528E-1,1.4900465E-1,-2.9051235E-1,7.6974034E-2,9.523494E-2,4.4199426E-2,-1.25355525E-2,4.6442688E-1,6.077137E-1,-5.30497E-2,1.8113358E-1,-3.329595E-1,-5.400065E-1,-9.137031E-2,4.4402903E-1,-4.5034133E-2,2.4930343E-2,-3.5466794E-2,-7.1379133E-3,3.089895E-2,-4.7986075E-2,4.11878E-2,1.579742E-2,-4.651129E-2,2.8983478E-2,6.540122E-2,-1.2724812E-2,9.335967E-2,-2.2448462E-2,3.4676727E-2,4.9792286E-2,-4.4365145E-2,-4.603167E-2,2.8854897E-2,1.5093322E-2,-5.6269515E-2,-3.0324807E-2,8.5995436E-2,-1.1007483E-2,7.2613515E-2],"categories":[],"categories_nodes":[],"categories_segments":[],"categories_sizes":[],"default_left":[0,0,0,0,0,0,0,0,0,0,0,0,0,0,0,0,0,0,0,0,0,0,0,0,0,0,0,0,0,0,0,0,0,0,0,0,0,0,0,0,0,0,0,0,0,0,0,0,0,0,0,0,0],"id":23,"left_children":[1,3,5,7,9,11,13,15,17,19,-1,21,23,25,27,29,31,-1,33,35,37,39,41,43,45,47,49,51,-1,-1,-1,-1,-1,-1,-1,-1,-1,-1,-1,-1,-1,-1,-1,-1,-1,-1,-1,-1,-1,-1,-1,-1,-1],"loss_changes":[6.9386E0,4.232772E0,2.8191981E0,3.9958673E0,4.1154227E0,1.5176934E0,2.1805992E0,3.6056025E0,2.081404E0,3.416624E0,0E0,2.2636638E0,1.3835334E0,1.5822353E0,1.5152681E0,1.7638783E0,2.0825799E0,0E0,1.2752572E0,1.7654046E0,1.5563526E0,1.7653358E0,1.5546929E0,1.6248261E0,1.9359729E0,7.1184635E-1,2.5500886E0,9.3784857E-1,0E0,0E0,0E0,0E0,0E0,0E0,0E0,0E0,0E0,0E0,0E0,0E0,0E0,0E0,0E0,0E0,0E0,0E0,0E0,0E0,0E0,0E0,0E0,0E0,0E0],"parents":[2147483647,0,0,1,1,2,2,3,3,4,4,5,5,6,6,7,7,8,8,9,9,11,11,12,12,13,13,14,14,15,15,16,16,18,18,19,19,20,20,21,21,22,22,23,23,24,24,25,25,26,26,27,27],"right_children":[2,4,6,8,10,12,14,16,18,20,-1,22,24,26,28,30,32,-1,34,36,38,40,42,44,46,48,50,52,-1,-1,-1,-1,-1,-1,-1,-1,-1,-1,-1,-1,-1,-1,-1,-1,-1,-1,-1,-1,-1,-1,-1,-1,-1],"split_conditions":[1.2821E1,1.6E0,3.4E-2,9E0,2.067E0,5.464E0,6.283E0,9.961E0,1.5E1,3.32E-1,-5.9193462E-2,2.82E-1,-1.014E0,1.6851E1,1.442E0,1.21E-1,4.967E0,9.523494E-2,1.142E0,-4.43E-1,3.601E0,3.4E-2,1.5178E1,6.29E0,-1.22E-1,1.839E0,1.5144E1,1.036E0,-4.5034133E-2,2.4930343E-2,-3.5466794E-2,-7.1379133E-3,3.089895E-2,-4.7986075E-2,4.11878E-2,1.579742E-2,-4.651129E-2,2.8983478E-2,6.540122E-2,-1.2724812E-2,9.335967E-2,-2.2448462E-2,3.4676727E-2,4.9792286E-2,-4.4365145E-2,-4.603167E-2,2.8854897E-2,1.5093322E-2,-5.6269515E-2,-3.0324807E-2,8.5995436E-2,-1.1007483E-2,7.2613515E-2],"split_indices":[2,6,12,13,7,3,9,2,4,15,0,15,12,2,6,16,9,0,7,12,3,15,8,3,12,9,8,7,0,0,0,0,0,0,0,0,0,0,0,0,0,0,0,0,0,0,0,0,0,0,0,0,0],"split_type":[0,0,0,0,0,0,0,0,0,0,0,0,0,0,0,0,0,0,0,0,0,0,0,0,0,0,0,0,0,0,0,0,0,0,0,0,0,0,0,0,0,0,0,0,0,0,0,0,0,0,0,0,0],"sum_hessian":[3.0277573E2,1.9269392E2,1.100818E2,1.1572769E2,7.696624E1,5.4294594E1,5.5787212E1,1.0624241E2,9.485279E0,7.267132E1,4.294922E0,2.6421007E1,2.7873585E1,4.9348625E1,6.4385877E0,4.7378643E1,5.886377E1,4.8926835E0,4.592595E0,2.0925022E1,5.1746296E1,5.874563E0,2.0546444E1,6.0931945E0,2.178039E1,3.8990925E1,1.03576975E1,4.488363E0,1.9502251E0,4.7261443E0,4.26525E1,3.6327763E1,2.2536007E1,1.767801E0,2.8247943E0,1.5671636E1,5.253386E0,2.8254793E1,2.3491503E1,1.9918607E0,3.8827026E0,1.4687303E1,5.859142E0,4.177895E0,1.9152992E0,1.8291517E1,3.4888732E0,1.0599452E0,3.793098E1,9.028188E0,1.32951E0,1.7199339E0,2.7684288E0],"tree_param":{"num_deleted":"0","num_feature":"20","num_nodes":"53","size_leaf_vector":"1"}},{"base_weights":[1.4875987E-1,-3.6361497E-2,2.0624056E-1,-5.7179075E-2,5.3902734E-3,-1.5167913E-1,2.3309049E-1,-3.5447136E-2,6.24242E-1,6.0656887E-2,-4.9066338E-1,1.699609E-1,3.5578898E-1,-1.6620211E-1,2.005387E-1,1.9747736E-3,8.40575E-2,-1.8525513E-1,4.6389204E-1,-5.929765E-2,-7.524197E-4,1.4871043E-1,6.5187716E-1,5.041567E-1,1.5586637E-1,1.195432E-2,-3.4101497E-2,-5.411433E-2,3.0732179E-2,-5.6286465E-2,2.4060922E-2,7.10621E-2,-8.781899E-3,-5.825935E-3,1.9526029E-2,-1.33066205E-2,9.107875E-2,6.929577E-2,3.4879334E-2,2.2986876E-2,-6.0198408E-2],"categories":[],"categories_nodes":[],"categories_segments":[],"categories_sizes":[],"default_left":[0,0,0,0,0,0,0,0,0,0,0,0,0,0,0,0,0,0,0,0,0,0,0,0,0,0,0,0,0,0,0,0,0,0,0,0,0,0,0,0,0],"id":24,"left_children":[1,3,5,-1,7,9,11,13,15,17,19,21,23,25,27,-1,-1,29,31,-1,-1,33,35,37,39,-1,-1,-1,-1,-1,-1,-1,-1,-1,-1,-1,-1,-1,-1,-1,-1],"loss_changes":[3.5358047E0,1.77836E0,2.468318E0,0E0,1.9089261E0,1.3449712E0,1.7667465E0,2.2236152E0,5.948138E-1,1.2882407E0,3.488456E-1,1.5177588E0,2.2713566E0,2.34966E0,2.2065568E0,0E0,0E0,1.461518E0,7.264892E-1,0E0,0E0,1.47877E0,1.4144368E0,1.0790882E0,2.112259E0,0E0,0E0,0E0,0E0,0E0,0E0,0E0,0E0,0E0,0E0,0E0,0E0,0E0,0E0,0E0,0E0],"parents":[2147483647,0,0,1,1,2,2,4,4,5,5,6,6,7,7,8,8,9,9,10,10,11,11,12,12,13,13,14,14,17,17,18,18,21,21,22,22,23,23,24,24],"right_children":[2,4,6,-1,8,10,12,14,16,18,20,22,24,26,28,-1,-1,30,32,-1,-1,34,36,38,40,-1,-1,-1,-1,-1,-1,-1,-1,-1,-1,-1,-1,-1,-1,-1,-1],"split_conditions":[-5.71E-1,1.83E-1,5.63E-1,-5.7179075E-2,1.684E0,1.2494E1,1.3493E1,7E0,2.35E-1,1.727E0,5.854E0,2.187E0,4.967E0,4E0,1.385E0,1.9747736E-3,8.40575E-2,1.0661E1,2.03E0,-5.929765E-2,-7.524197E-4,9.66E-1,3E0,5.106E0,9E0,1.195432E-2,-3.4101497E-2,-5.411433E-2,3.0732179E-2,-5.6286465E-2,2.4060922E-2,7.10621E-2,-8.781899E-3,-5.825935E-3,1.9526029E-2,-1.33066205E-2,9.107875E-2,6.929577E-2,3.4879334E-2,2.2986876E-2,-6.0198408E-2],"split_indices":[12,16,7,0,15,8,2,10,2,6,9,6,9,4,6,0,0,8,6,0,0,7,5,3,10,0,0,0,0,0,0,0,0,0,0,0,0,0,0,0,0],"split_type":[0,0,0,0,0,0,0,0,0,0,0,0,0,0,0,0,0,0,0,0,0,0,0,0,0,0,0,0,0,0,0,0,0,0,0,0,0,0,0,0,0],"sum_hessian":[3.3057944E2,7.841259E1,2.5216685E2,4.753839E0,7.365875E1,1.7272234E1,2.3489462E2,6.9983345E1,3.67541E0,1.1124827E1,6.1474075E0,1.56671E2,7.822361E1,4.5222294E1,2.4761047E1,1.2562853E0,2.4191246E0,7.246279E0,3.8785481E0,4.8854804E0,1.2619267E0,1.5130757E2,5.363441E0,4.402773E1,3.4195885E1,1.7284914E1,2.793738E1,2.604351E0,2.2156698E1,3.6702268E0,3.576052E0,2.4809978E0,1.3975505E0,2.7736061E1,1.2357151E2,1.4508686E0,3.9125724E0,1.8313063E1,2.5714666E1,3.1788494E1,2.4073915E0],"tree_param":{"num_deleted":"0","num_feature":"20","num_nodes":"41","size_leaf_vector":"1"}},{"base_weights":[-1.4965644E-1,-2.1200202E-1,2.367575E-2,-2.576637E-1,1.18401736E-1,1.5350547E-1,-2.0260185E-1,-8.426207E-2,-3.2934782E-1,3.925757E-1,-2.3004963E-1,2.960177E-1,-2.7774075E-1,2.973642E-1,-3.596352E-1,6.399821E-1,-1.5089397E-1,-2.611428E-1,-5.822487E-1,-1.9724046E-1,6.393103E-1,6.163718E-2,-4.322517E-1,-1.2983765E-1,5.046077E-1,-4.362154E-1,1.7864949E-1,6.4251554E-1,-4.432584E-2,-4.9865863E-1,3.1577304E-1,1.3719886E-2,9.6968405E-2,-2.2747874E-2,3.7347328E-2,-3.1952024E-2,4.5006897E-2,-6.1554946E-2,6.3368166E-3,4.7690954E-2,-5.3555924E-2,9.348615E-2,-2.1262761E-2,4.578458E-3,-5.927946E-2,-3.0897886E-2,8.074629E-2,9.568121E-2,3.0291522E-2,-6.1875332E-2,2.554968E-2,7.224402E-2,-4.137222E-2,6.4237886E-3,7.9464875E-2,-5.41532E-2,7.813569E-3,8.111058E-2,-3.92753E-2],"categories":[],"categories_nodes":[],"categories_segments":[],"categories_sizes":[],"default_left":[0,0,0,0,0,0,0,0,0,0,0,0,0,0,0,0,0,0,0,0,0,0,0,0,0,0,0,0,0,0,0,0,0,0,0,0,0,0,0,0,0,0,0,0,0,0,0,0,0,0,0,0,0,0,0,0,0,0,0],"id":25,"left_children":[1,3,5,7,9,11,13,15,17,19,21,23,25,27,29,31,33,35,37,39,41,-1,43,45,47,49,51,53,-1,55,57,-1,-1,-1,-1,-1,-1,-1,-1,-1,-1,-1,-1,-1,-1,-1,-1,-1,-1,-1,-1,-1,-1,-1,-1,-1,-1,-1,-1],"loss_changes":[3.085363E0,3.1948252E0,2.2727475E0,2.266716E0,2.5887568E0,3.0969987E0,2.3249097E0,2.7668393E0,2.0947418E0,2.3097885E0,2.3452783E0,3.3836608E0,9.9649215E-1,2.150789E0,2.2185726E0,6.713828E-1,2.1523514E0,4.4784307E0,6.16354E-1,1.4391187E0,2.9219937E0,0E0,8.246877E-1,2.445153E0,2.0156536E0,1.3850515E0,1.5818542E0,4.2291546E-1,0E0,5.020609E-1,1.8484689E0,0E0,0E0,0E0,0E0,0E0,0E0,0E0,0E0,0E0,0E0,0E0,0E0,0E0,0E0,0E0,0E0,0E0,0E0,0E0,0E0,0E0,0E0,0E0,0E0,0E0,0E0,0E0,0E0],"parents":[2147483647,0,0,1,1,2,2,3,3,4,4,5,5,6,6,7,7,8,8,9,9,10,10,11,11,12,12,13,13,14,14,15,15,16,16,17,17,18,18,19,19,20,20,22,22,23,23,24,24,25,25,26,26,27,27,29,29,30,30],"right_children":[2,4,6,8,10,12,14,16,18,20,22,24,26,28,30,32,34,36,38,40,42,-1,44,46,48,50,52,54,-1,56,58,-1,-1,-1,-1,-1,-1,-1,-1,-1,-1,-1,-1,-1,-1,-1,-1,-1,-1,-1,-1,-1,-1,-1,-1,-1,-1,-1,-1],"split_conditions":[5.54E0,2.067E0,6.05E-1,9.92E-1,2.505E0,5.896E0,1.1813E1,1.52E-1,1.647E0,9.058E0,2.28E-1,1.1576E1,4.38E-1,8.78E-1,1.048E0,6E-1,1.6289E1,1.581E0,2.743E0,2.269E0,1E0,6.163718E-2,6.44E-1,5.44E-1,1.2939E1,2.119E0,1.291E0,0E0,-4.432584E-2,1.472E0,1.357E0,1.3719886E-2,9.6968405E-2,-2.2747874E-2,3.7347328E-2,-3.1952024E-2,4.5006897E-2,-6.1554946E-2,6.3368166E-3,4.7690954E-2,-5.3555924E-2,9.348615E-2,-2.1262761E-2,4.578458E-3,-5.927946E-2,-3.0897886E-2,8.074629E-2,9.568121E-2,3.0291522E-2,-6.1875332E-2,2.554968E-2,7.224402E-2,-4.137222E-2,6.4237886E-3,7.9464875E-2,-5.41532E-2,7.813569E-3,8.111058E-2,-3.92753E-2],"split_indices":[3,7,15,0,7,9,2,8,7,8,14,8,15,14,12,0,8,7,1,9,13,0,6,15,8,0,7,13,0,14,12,0,0,0,0,0,0,0,0,0,0,0,0,0,0,0,0,0,0,0,0,0,0,0,0,0,0,0,0],"split_type":[0,0,0,0,0,0,0,0,0,0,0,0,0,0,0,0,0,0,0,0,0,0,0,0,0,0,0,0,0,0,0,0,0,0,0,0,0,0,0,0,0,0,0,0,0,0,0,0,0,0,0,0,0,0,0,0,0,0,0],"sum_hessian":[2.8404556E2,2.0874083E2,7.530475E1,1.8358904E2,2.5151789E1,4.8054474E1,2.7250277E1,5.4333485E1,1.2925555E2,1.4005294E1,1.1146496E1,3.6354218E1,1.1700256E1,6.2996573E0,2.0950619E1,3.8526802E0,5.0480804E1,1.03401665E2,2.585389E1,4.1899242E0,9.81537E0,1.7543712E0,9.392124E0,1.2076498E1,2.4277718E1,8.717456E0,2.9828007E0,4.3874474E0,1.91221E0,1.7591372E1,3.3592474E0,2.086688E0,1.765992E0,4.4541607E1,5.9391966E0,9.6067055E1,7.334608E0,2.4630047E1,1.2238412E0,1.2631888E0,2.9267356E0,7.215024E0,2.6003456E0,2.540949E0,6.8511753E0,1.0701526E1,1.3749725E0,6.333587E0,1.794413E1,6.980759E0,1.7366968E0,1.4406904E0,1.5421103E0,1.2100693E0,3.1773777E0,1.6431171E1,1.1602008E0,1.8918617E0,1.4673856E0],"tree_param":{"num_deleted":"0","num_feature":"20","num_nodes":"59","size_leaf_vector":"1"}},{"base_weights":[-2.2141485E-2,8.480051E-2,-2.1166335E-1,-1.23944856E-1,1.7804426E-1,-5.5096034E-2,-3.634216E-1,-3.6562183E-1,8.464278E-2,9.9530175E-2,5.1084507E-1,1.07905865E-1,-2.0955661E-1,-4.334303E-1,1.4461136E-1,1.5379822E-1,-4.6468312E-1,5.0765365E-1,-1.2252831E-1,-1.735751E-1,1.9048041E-1,5.78778E-1,-4.208495E-2,5.7952464E-1,-4.908139E-2,1.6957422E-1,-3.2041207E-1,-5.251423E-1,-7.859843E-2,4.2645648E-1,-4.4089448E-2,5.7045262E-2,-4.5573212E-2,3.7710384E-2,-5.3189185E-2,5.4662335E-3,8.396613E-2,-3.3104975E-2,1.2028723E-2,4.672531E-2,-2.884228E-2,2.219714E-2,-5.5169147E-2,6.478805E-2,-3.8761653E-2,-1.2008618E-2,8.8356726E-2,2.813731E-2,-2.44354E-2,4.682493E-2,-4.340825E-2,-4.471029E-2,2.8263351E-2,-6.2218525E-2,-2.8019983E-2,-2.8848711E-2,8.274435E-2,2.4712784E-4,7.997254E-2],"categories":[],"categories_nodes":[],"categories_segments":[],"categories_sizes":[],"default_left":[0,0,0,0,0,0,0,0,0,0,0,0,0,0,0,0,0,0,0,0,0,0,0,0,0,0,0,0,0,0,0,0,0,0,0,0,0,0,0,0,0,0,0,0,0,0,0,0,0,0,0,0,0,0,0,0,0,0,0],"id":26,"left_children":[1,3,5,7,9,11,13,15,17,19,21,23,25,27,29,31,33,35,37,39,41,43,-1,45,47,49,51,53,55,57,-1,-1,-1,-1,-1,-1,-1,-1,-1,-1,-1,-1,-1,-1,-1,-1,-1,-1,-1,-1,-1,-1,-1,-1,-1,-1,-1,-1,-1],"loss_changes":[6.120606E0,3.7825484E0,2.5674963E0,3.0678458E0,3.449388E0,1.4018208E0,2.0231485E0,1.5171244E0,2.967068E0,2.7561216E0,1.8466887E0,2.050649E0,1.2507513E0,1.5433779E0,1.4134278E0,1.5936397E0,1.5495896E0,1.6222227E0,1.2071787E0,2.1889615E0,2.0557058E0,1.8557367E0,0E0,1.5736434E0,1.4505609E0,1.4823368E0,1.8356249E0,7.412348E-1,2.3642352E0,8.7178874E-1,0E0,0E0,0E0,0E0,0E0,0E0,0E0,0E0,0E0,0E0,0E0,0E0,0E0,0E0,0E0,0E0,0E0,0E0,0E0,0E0,0E0,0E0,0E0,0E0,0E0,0E0,0E0,0E0,0E0],"parents":[2147483647,0,0,1,1,2,2,3,3,4,4,5,5,6,6,7,7,8,8,9,9,10,10,11,11,12,12,13,13,14,14,15,15,16,16,17,17,18,18,19,19,20,20,21,21,23,23,24,24,25,25,26,26,27,27,28,28,29,29],"right_children":[2,4,6,8,10,12,14,16,18,20,22,24,26,28,30,32,34,36,38,40,42,44,-1,46,48,50,52,54,56,58,-1,-1,-1,-1,-1,-1,-1,-1,-1,-1,-1,-1,-1,-1,-1,-1,-1,-1,-1,-1,-1,-1,-1,-1,-1,-1,-1,-1,-1],"split_conditions":[1.2821E1,1.042E0,3.4E-2,9.772E0,3E0,5.464E0,6.283E0,-2.14E-1,9.49E-1,3.34E-1,2.152E0,2.82E-1,-1.014E0,1.6851E1,1.442E0,6E0,2.33E-1,4.941E0,3.29E-1,4.7E-2,1.9885E1,3.495E0,-4.208495E-2,3.4E-2,1.056E0,6.29E0,-1.22E-1,5.97E0,1.5144E1,1.226E0,-4.4089448E-2,5.7045262E-2,-4.5573212E-2,3.7710384E-2,-5.3189185E-2,5.4662335E-3,8.396613E-2,-3.3104975E-2,1.2028723E-2,4.672531E-2,-2.884228E-2,2.219714E-2,-5.5169147E-2,6.478805E-2,-3.8761653E-2,-1.2008618E-2,8.8356726E-2,2.813731E-2,-2.44354E-2,4.682493E-2,-4.340825E-2,-4.471029E-2,2.8263351E-2,-6.2218525E-2,-2.8019983E-2,-2.8848711E-2,8.274435E-2,2.4712784E-4,7.997254E-2],"split_indices":[2,6,12,2,13,3,9,12,7,14,7,15,12,2,6,10,1,9,15,14,8,0,0,15,7,3,12,3,8,6,0,0,0,0,0,0,0,0,0,0,0,0,0,0,0,0,0,0,0,0,0,0,0,0,0,0,0,0,0],"split_type":[0,0,0,0,0,0,0,0,0,0,0,0,0,0,0,0,0,0,0,0,0,0,0,0,0,0,0,0,0,0,0,0,0,0,0,0,0,0,0,0,0,0,0,0,0,0,0,0,0,0,0,0,0,0,0,0,0,0,0],"sum_hessian":[3.001004E2,1.9219986E2,1.0790056E2,5.9242977E1,1.3295688E2,5.3779694E1,5.4120865E1,2.7095886E1,3.214709E1,1.0862842E2,2.4328459E1,2.6313023E1,2.7466671E1,4.7695152E1,6.4257116E0,4.251408E0,2.2844479E1,1.00914755E1,2.2055616E1,2.6911156E1,8.171726E1,2.3028185E1,1.3002728E0,5.899199E0,2.0413822E1,6.0942755E0,2.1372395E1,3.751804E1,1.0177114E1,4.5210543E0,1.9046571E0,2.56332E0,1.6880882E0,1.3481395E0,2.149634E1,4.760665E0,5.33081E0,1.1670243E1,1.0385373E1,3.6236148E0,2.328754E1,7.906345E1,2.6538155E0,2.1799026E1,1.2291589E0,1.9703658E0,3.928833E0,7.418602E0,1.2995221E1,4.2271123E0,1.8671632E0,1.7875593E1,3.496802E0,2.5768696E1,1.1749345E1,8.81636E0,1.3607532E0,2.5880196E0,1.9330348E0],"tree_param":{"num_deleted":"0","num_feature":"20","num_nodes":"59","size_leaf_vector":"1"}},{"base_weights":[1.3707136E-1,1.3225764E-2,2.0925887E-1,-1.2606329E-2,5.8753043E-1,-1.2282026E-2,2.509924E-1,5.4660503E-2,-2.750531E-1,1.5498427E-2,7.719656E-2,-1.4654118E-1,6.525723E-1,-1.0021063E-1,2.8673556E-1,-7.267201E-2,2.9012465E-1,-4.921398E-1,1.0184482E-1,9.423872E-3,-6.346423E-2,7.422014E-2,2.2196941E-2,-2.0955434E-1,6.1811168E-2,6.3633174E-1,2.482759E-1,-6.0552698E-2,-1.15856936E-4,6.978815E-2,1.6421642E-2,-5.9817374E-2,3.532863E-2,5.1579554E-2,-4.151015E-2,-3.237186E-2,2.8777067E-2,2.7585957E-2,-3.4774702E-2,-4.4698726E-2,7.733451E-2,2.2194019E-2,7.081846E-2],"categories":[],"categories_nodes":[],"categories_segments":[],"categories_sizes":[],"default_left":[0,0,0,0,0,0,0,0,0,0,0,0,0,0,0,0,0,0,0,0,0,0,0,0,0,0,0,0,0,0,0,0,0,0,0,0,0,0,0,0,0,0,0],"id":27,"left_children":[1,3,5,7,9,11,13,15,17,-1,-1,19,21,23,25,27,29,31,33,35,-1,-1,-1,37,-1,39,41,-1,-1,-1,-1,-1,-1,-1,-1,-1,-1,-1,-1,-1,-1,-1,-1],"loss_changes":[2.9565096E0,1.8315732E0,1.9359093E0,2.1096063E0,3.042618E-1,3.1387453E0,2.2375832E0,2.8776278E0,2.0441823E0,0E0,0E0,2.2273993E0,6.339121E-2,1.4643767E0,1.9928045E0,2.386096E0,1.6124353E0,1.6129758E0,2.2974534E0,2.235166E0,0E0,0E0,0E0,1.135445E0,0E0,2.6038961E0,1.6081676E0,0E0,0E0,0E0,0E0,0E0,0E0,0E0,0E0,0E0,0E0,0E0,0E0,0E0,0E0,0E0,0E0],"parents":[2147483647,0,0,1,1,2,2,3,3,4,4,5,5,6,6,7,7,8,8,11,11,12,12,13,13,14,14,15,15,16,16,17,17,18,18,19,19,23,23,25,25,26,26],"right_children":[2,4,6,8,10,12,14,16,18,-1,-1,20,22,24,26,28,30,32,34,36,-1,-1,-1,38,-1,40,42,-1,-1,-1,-1,-1,-1,-1,-1,-1,-1,-1,-1,-1,-1,-1,-1],"split_conditions":[-2.8E-1,2.505E0,8.24E-1,9.35E-1,9.28E-1,1.924E0,4.7E-2,7E0,1.02E0,1.5498427E-2,7.719656E-2,7.85E-1,2.962E0,1.074E0,9.28E-1,5.61E-1,6.33E-1,3.42E0,1.45E0,5.63E-1,-6.346423E-2,7.422014E-2,2.2196941E-2,6E-3,6.1811168E-2,1E-2,2.7E1,-6.0552698E-2,-1.15856936E-4,6.978815E-2,1.6421642E-2,-5.9817374E-2,3.532863E-2,5.1579554E-2,-4.151015E-2,-3.237186E-2,2.8777067E-2,2.7585957E-2,-3.4774702E-2,-4.4698726E-2,7.733451E-2,2.2194019E-2,7.081846E-2],"split_indices":[12,7,7,15,0,6,14,10,0,0,0,7,0,15,0,0,0,16,0,7,0,0,0,14,0,16,10,0,0,0,0,0,0,0,0,0,0,0,0,0,0,0,0],"split_type":[0,0,0,0,0,0,0,0,0,0,0,0,0,0,0,0,0,0,0,0,0,0,0,0,0,0,0,0,0,0,0,0,0,0,0,0,0,0,0,0,0,0,0],"sum_hessian":[3.3001154E2,1.2195962E2,2.0805191E2,1.1764598E2,4.3136396E0,3.309166E1,1.7496025E2,9.427453E1,2.3371452E1,1.8396115E0,2.4740283E0,2.8180536E1,4.9111238E0,1.5994909E1,1.5896533E2,6.1635254E1,3.2639275E1,1.463575E1,8.7357025E0,2.2099636E1,6.0808997E0,3.4660408E0,1.445083E0,1.4496509E1,1.4984002E0,1.421414E1,1.4475119E2,6.4095597E0,5.5225693E1,6.62884E0,2.6010433E1,1.3264559E1,1.3711917E0,4.852352E0,3.8833504E0,9.985443E0,1.2114194E1,2.9917006E0,1.1504807E1,1.3418907E0,1.287225E1,1.3831354E2,6.437666E0],"tree_param":{"num_deleted":"0","num_feature":"20","num_nodes":"43","size_leaf_vector":"1"}},{"base_weights":[-1.396887E-1,-1.100779E-1,-5.0907457E-1,2.8804466E-1,-1.3151589E-1,-5.88363E-2,5.7603884E-2,-4.8247334E-2,5.1334864E-1,2.868489E-1,-1.5475096E-1,-3.470871E-2,3.9843347E-2,-2.7708588E-2,6.852086E-1,-3.3411717E-1,5.708116E-1,1.8724622E-1,-1.8023607E-1,-3.9630275E-2,3.320508E-2,7.7835172E-3,8.9386985E-2,-4.9568813E-2,1.025372E-2,-3.8348272E-2,7.843417E-2,-3.1085541E-2,4.2483367E-2,1.8471414E-2,-2.0859236E-2],"categories":[],"categories_nodes":[],"categories_segments":[],"categories_sizes":[],"default_left":[0,0,0,0,0,0,0,0,0,0,0,0,0,0,0,0,0,0,0,0,0,0,0,0,0,0,0,0,0,0,0],"id":28,"left_children":[1,3,5,7,9,-1,11,-1,13,15,17,-1,-1,19,21,23,25,27,29,-1,-1,-1,-1,-1,-1,-1,-1,-1,-1,-1,-1],"loss_changes":[3.0166364E0,2.268491E0,9.582243E-1,2.6203613E0,2.4617696E0,0E0,6.1221254E-1,0E0,1.0473862E0,2.5597348E0,2.0928426E0,0E0,0E0,6.1258537E-1,9.9911594E-1,3.9275998E-1,2.2546158E0,2.1290197E0,2.3190918E0,0E0,0E0,0E0,0E0,0E0,0E0,0E0,0E0,0E0,0E0,0E0,0E0],"parents":[2147483647,0,0,1,1,2,2,3,3,4,4,6,6,8,8,9,9,10,10,13,13,14,14,15,15,16,16,17,17,18,18],"right_children":[2,4,6,8,10,-1,12,-1,14,16,18,-1,-1,20,22,24,26,28,30,-1,-1,-1,-1,-1,-1,-1,-1,-1,-1,-1,-1],"split_conditions":[2.2E1,5.9E-2,5.661E0,3.767E0,4.35E-1,-5.88363E-2,1.203E0,-4.8247334E-2,3.734E0,0E0,5.53E-1,-3.470871E-2,3.9843347E-2,1.114E0,4E0,3.53E-1,6.42E-1,4.266E0,1.997E0,-3.9630275E-2,3.320508E-2,7.7835172E-3,8.9386985E-2,-4.9568813E-2,1.025372E-2,-3.8348272E-2,7.843417E-2,-3.1085541E-2,4.2483367E-2,1.8471414E-2,-2.0859236E-2],"split_indices":[4,16,3,3,6,0,7,0,9,13,7,0,0,6,10,6,1,9,9,0,0,0,0,0,0,0,0,0,0,0,0],"split_type":[0,0,0,0,0,0,0,0,0,0,0,0,0,0,0,0,0,0,0,0,0,0,0,0,0,0,0,0,0,0,0],"sum_hessian":[2.7992233E2,2.603501E2,1.9572239E1,1.2667477E1,2.4768262E2,1.71363E1,2.4359398E0,2.6077588E0,1.0059718E1,1.24350395E1,2.3524757E2,1.1052449E0,1.3306948E0,2.6272545E0,7.4324636E0,3.846638E0,8.588402E0,1.5874366E1,2.1937321E2,1.2475207E0,1.3797337E0,2.2515745E0,5.180889E0,2.709042E0,1.137596E0,1.4248111E0,7.1635904E0,5.0269637E0,1.0847403E1,1.5418638E1,2.0395457E2],"tree_param":{"num_deleted":"0","num_feature":"20","num_nodes":"31","size_leaf_vector":"1"}},{"base_weights":[-2.0549243E-2,7.9758674E-2,-2.0128891E-1,-1.18515626E-1,1.6742837E-1,-5.2154783E-2,-3.4891796E-1,-3.538908E-1,8.169353E-2,9.3809575E-2,4.795778E-1,-2.0076327E-1,1.17427304E-1,-4.1837478E-1,1.4077964E-1,1.4793181E-1,-4.5180523E-1,4.7567326E-1,-1.14386804E-1,3.529888E-2,4.854913E-1,5.447514E-1,-4.1506283E-2,-7.330754E-3,-4.3207708E-1,-5.6956213E-2,2.9667443E-1,-5.1150167E-1,-6.580066E-2,4.0727228E-1,-4.288156E-2,5.4293074E-2,-4.4594534E-2,3.6122244E-2,-5.1871937E-2,4.7970293E-3,7.8741655E-2,-3.1853568E-2,1.1937152E-2,-4.6708662E-2,7.4722394E-3,9.002917E-3,9.539228E-2,6.106433E-2,-3.814299E-2,2.1826003E-2,-3.2989565E-2,3.916408E-2,-5.5864014E-2,5.6866314E-2,-2.3938948E-3,-6.1084438E-2,-2.656211E-2,-2.7328847E-2,7.946102E-2,-1.1528241E-2,6.71639E-2],"categories":[],"categories_nodes":[],"categories_segments":[],"categories_sizes":[],"default_left":[0,0,0,0,0,0,0,0,0,0,0,0,0,0,0,0,0,0,0,0,0,0,0,0,0,0,0,0,0,0,0,0,0,0,0,0,0,0,0,0,0,0,0,0,0,0,0,0,0,0,0,0,0,0,0,0,0],"id":29,"left_children":[1,3,5,7,9,11,13,15,17,19,21,23,25,27,29,31,33,35,37,39,41,43,-1,45,47,-1,49,51,53,55,-1,-1,-1,-1,-1,-1,-1,-1,-1,-1,-1,-1,-1,-1,-1,-1,-1,-1,-1,-1,-1,-1,-1,-1,-1,-1,-1],"loss_changes":[5.424726E0,3.367259E0,2.3323126E0,2.838822E0,3.033067E0,1.3916445E0,1.8777547E0,1.4227078E0,2.606285E0,2.4952283E0,1.702344E0,1.3078635E0,3.368744E0,1.5123281E0,1.2965211E0,1.4756534E0,1.4569206E0,1.4516957E0,1.1290455E0,1.9453037E0,2.5389774E0,1.6995158E0,0E0,1.3071871E0,1.6081157E0,0E0,1.8680103E0,7.4394417E-1,2.178384E0,8.438596E-1,0E0,0E0,0E0,0E0,0E0,0E0,0E0,0E0,0E0,0E0,0E0,0E0,0E0,0E0,0E0,0E0,0E0,0E0,0E0,0E0,0E0,0E0,0E0,0E0,0E0,0E0,0E0],"parents":[2147483647,0,0,1,1,2,2,3,3,4,4,5,5,6,6,7,7,8,8,9,9,10,10,11,11,12,12,13,13,14,14,15,15,16,16,17,17,18,18,19,19,20,20,21,21,23,23,24,24,26,26,27,27,28,28,29,29],"right_children":[2,4,6,8,10,12,14,16,18,20,22,24,26,28,30,32,34,36,38,40,42,44,-1,46,48,-1,50,52,54,56,-1,-1,-1,-1,-1,-1,-1,-1,-1,-1,-1,-1,-1,-1,-1,-1,-1,-1,-1,-1,-1,-1,-1,-1,-1,-1,-1],"split_conditions":[1.2821E1,1.042E0,3.4E-2,9.772E0,3E0,1.206E0,6.283E0,-2.14E-1,9.49E-1,1.751E0,2.152E0,8.35E-1,8.39E-1,1.6851E1,1.442E0,6E0,2.33E-1,4.941E0,3.29E-1,9.1E-2,-1.95E0,3.495E0,-4.1506283E-2,1.5452E1,7.92E-1,-5.6956213E-2,5.464E0,5.97E0,1.5144E1,1.036E0,-4.288156E-2,5.4293074E-2,-4.4594534E-2,3.6122244E-2,-5.1871937E-2,4.7970293E-3,7.8741655E-2,-3.1853568E-2,1.1937152E-2,-4.6708662E-2,7.4722394E-3,9.002917E-3,9.539228E-2,6.106433E-2,-3.814299E-2,2.1826003E-2,-3.2989565E-2,3.916408E-2,-5.5864014E-2,5.6866314E-2,-2.3938948E-3,-6.1084438E-2,-2.656211E-2,-2.7328847E-2,7.946102E-2,-1.1528241E-2,6.71639E-2],"split_indices":[2,6,12,2,13,0,9,12,7,14,7,0,1,2,6,10,1,9,15,16,12,0,0,2,1,0,3,3,8,7,0,0,0,0,0,0,0,0,0,0,0,0,0,0,0,0,0,0,0,0,0,0,0,0,0,0,0],"split_type":[0,0,0,0,0,0,0,0,0,0,0,0,0,0,0,0,0,0,0,0,0,0,0,0,0,0,0,0,0,0,0,0,0,0,0,0,0,0,0,0,0,0,0,0,0,0,0,0,0,0,0,0,0,0,0,0,0],"sum_hessian":[2.973334E2,1.9157227E2,1.0576115E2,5.8627693E1,1.3294458E2,5.3285587E1,5.2475555E1,2.6594437E1,3.203326E1,1.0862619E2,2.4318386E1,2.8300964E1,2.4984623E1,4.6084724E1,6.3908334E0,4.258469E0,2.2335968E1,1.0170998E1,2.186226E1,9.545668E1,1.3169508E1,2.303165E1,1.2867362E0,1.5974354E1,1.232661E1,4.719388E0,2.0265236E1,3.6098984E1,9.985739E0,4.5479803E0,1.8428531E0,2.6089761E0,1.6494931E0,1.364049E0,2.0971918E1,4.774456E0,5.3965416E0,1.1476651E1,1.0385611E1,6.1563654E0,8.9300316E1,7.787386E0,5.382122E0,2.1819986E1,1.2116642E0,9.59047E0,6.383884E0,1.3627715E0,1.0963838E1,1.054545E1,9.719786E0,2.4653824E1,1.144516E1,8.595348E0,1.3903909E0,1.7173492E0,2.8306313E0],"tree_param":{"num_deleted":"0","num_feature":"20","num_nodes":"57","size_leaf_vector":"1"}},{"base_weights":[1.2706235E-1,1.06039725E-1,5.133259E-1,-2.9414374E-1,1.2792978E-1,2.4888375E-1,8.554414E-2,8.851592E-2,-4.2689604E-1,-3.377178E-2,1.7943607E-1,-4.279832E-2,4.1176856E-1,5.1360786E-2,-4.70151E-2,-5.4653955E-1,1.2267299E-2,-1.7028743E-1,1.4031693E-1,1.613174E-1,5.830836E-1,8.910134E-3,6.3633096E-1,-6.1989523E-2,2.6726583E-4,-3.6566507E-2,1.2211307E-2,-4.8970558E-2,2.0522527E-2,4.4193212E-2,1.2953043E-2,7.8435935E-2,1.7846826E-2,-4.7639098E-2,4.0265705E-2,7.429778E-2,1.8756462E-2],"categories":[],"categories_nodes":[],"categories_segments":[],"categories_sizes":[],"default_left":[0,0,0,0,0,0,0,0,0,0,0,0,0,0,0,0,0,0,0,0,0,0,0,0,0,0,0,0,0,0,0,0,0,0,0,0,0],"id":30,"left_children":[1,3,5,7,9,11,-1,13,15,17,19,-1,21,-1,-1,23,-1,25,27,29,31,33,35,-1,-1,-1,-1,-1,-1,-1,-1,-1,-1,-1,-1,-1,-1],"loss_changes":[2.626855E0,2.791904E0,1.3054657E0,8.8153577E-1,2.4946928E0,1.37538E0,0E0,1.4541447E0,8.89164E-1,1.7594184E0,1.5644932E0,0E0,8.3354354E-1,0E0,0E0,4.2271304E-1,0E0,2.4087248E0,1.4354489E0,1.8910227E0,6.2226295E-1,1.0200601E0,1.450293E-1,0E0,0E0,0E0,0E0,0E0,0E0,0E0,0E0,0E0,0E0,0E0,0E0,0E0,0E0],"parents":[2147483647,0,0,1,1,2,2,3,3,4,4,5,5,7,7,8,8,9,9,10,10,12,12,15,15,17,17,18,18,19,19,20,20,21,21,22,22],"right_children":[2,4,6,8,10,12,-1,14,16,18,20,-1,22,-1,-1,24,-1,26,28,30,32,34,36,-1,-1,-1,-1,-1,-1,-1,-1,-1,-1,-1,-1,-1,-1],"split_conditions":[1.827E0,4.61E-1,1.1135E1,2.583E0,-5.58E-1,1E0,8.554414E-2,1.03E0,6.407E0,6E0,3.016E0,-4.279832E-2,5.07E-1,5.1360786E-2,-4.70151E-2,3E0,1.2267299E-2,1.166E0,2.73E-1,3E0,2E0,1.99E-1,2.322E0,-6.1989523E-2,2.6726583E-4,-3.6566507E-2,1.2211307E-2,-4.8970558E-2,2.0522527E-2,4.4193212E-2,1.2953043E-2,7.8435935E-2,1.7846826E-2,-4.7639098E-2,4.0265705E-2,7.429778E-2,1.8756462E-2],"split_indices":[15,7,8,3,12,7,0,15,3,10,0,0,14,0,0,13,0,0,16,10,13,1,0,0,0,0,0,0,0,0,0,0,0,0,0,0,0],"split_type":[0,0,0,0,0,0,0,0,0,0,0,0,0,0,0,0,0,0,0,0,0,0,0,0,0,0,0,0,0,0,0,0,0,0,0,0,0],"sum_hessian":[3.2919666E2,3.1341348E2,1.5783192E1,1.5609566E1,2.978039E2,9.876512E0,5.90668E0,4.1063123E0,1.1503254E1,7.202602E1,2.257779E2,1.6000386E0,8.276473E0,2.377737E0,1.728575E0,9.4512005E0,2.0520535E0,4.0381653E1,3.164436E1,2.1741821E2,8.359689E0,3.3343763E0,4.9420967E0,8.224053E0,1.2271471E0,2.405674E1,1.6324913E1,2.344385E0,2.9299974E1,2.0809492E1,1.9660872E2,4.955865E0,3.4038234E0,1.3995326E0,1.9348439E0,3.4634311E0,1.4786658E0],"tree_param":{"num_deleted":"0","num_feature":"20","num_nodes":"37","size_leaf_vector":"1"}},{"base_weights":[-1.3079464E-1,-1.0243094E-1,-4.9641132E-1,2.744593E-1,-1.2261961E-1,-5.7808693E-2,6.513484E-2,-3.3207697E-1,5.4185134E-1,-1.7169522E-1,8.036388E-2,3.9818764E-2,-3.3879068E-2,7.7851578E-3,-4.8199344E-2,-1.7462255E-1,7.886172E-1,-2.0780437E-1,1.2889536E-1,1.8851873E-1,-2.9192656E-1,-3.6235962E-2,9.436253E-3,1.2645582E-2,1.0355045E-1,-1.7488733E-3,-2.6744504E-2,2.9820058E-2,-4.0225085E-2,-4.866925E-2,2.5235808E-2,-4.8988663E-2,2.11656E-2],"categories":[],"categories_nodes":[],"categories_segments":[],"categories_sizes":[],"default_left":[0,0,0,0,0,0,0,0,0,0,0,0,0,0,0,0,0,0,0,0,0,0,0,0,0,0,0,0,0,0,0,0,0],"id":31,"left_children":[1,3,5,7,9,-1,11,13,15,17,19,-1,-1,-1,-1,21,23,25,27,29,31,-1,-1,-1,-1,-1,-1,-1,-1,-1,-1,-1,-1],"loss_changes":[2.8250608E0,2.0014544E0,9.414277E-1,2.362546E0,2.4659324E0,0E0,5.9241873E-1,3.2867414E-1,1.8562343E0,2.181881E0,2.0122468E0,0E0,0E0,0E0,0E0,2.0128435E-1,1.0806403E0,2.0116487E0,2.090294E0,1.7726015E0,1.2336426E0,0E0,0E0,0E0,0E0,0E0,0E0,0E0,0E0,0E0,0E0,0E0,0E0],"parents":[2147483647,0,0,1,1,2,2,3,3,4,4,6,6,7,7,8,8,9,9,10,10,15,15,16,16,17,17,18,18,19,19,20,20],"right_children":[2,4,6,8,10,-1,12,14,16,18,20,-1,-1,-1,-1,22,24,26,28,30,32,-1,-1,-1,-1,-1,-1,-1,-1,-1,-1,-1,-1],"split_conditions":[2.2E1,4.35E-1,5.661E0,1.018E0,6.041E0,-5.7808693E-2,1.989E0,1.002E0,0E0,2.104E0,1.387E0,3.9818764E-2,-3.3879068E-2,7.7851578E-3,-4.8199344E-2,9.821E0,1.32E-1,8.967E0,2.839E0,9.502E0,9.68E-1,-3.6235962E-2,9.436253E-3,1.2645582E-2,1.0355045E-1,-1.7488733E-3,-2.6744504E-2,2.9820058E-2,-4.0225085E-2,-4.866925E-2,2.5235808E-2,-4.8988663E-2,2.11656E-2],"split_indices":[4,6,3,1,3,0,0,0,13,7,16,0,0,0,0,8,15,2,7,8,12,0,0,0,0,0,0,0,0,0,0,0,0],"split_type":[0,0,0,0,0,0,0,0,0,0,0,0,0,0,0,0,0,0,0,0,0,0,0,0,0,0,0,0,0,0,0,0,0],"sum_hessian":[2.7632315E2,2.576179E2,1.8705248E1,1.2457701E1,2.451602E2,1.630436E1,2.4008884E0,3.7376122E0,8.720089E0,1.9755193E2,4.7608273E1,1.3236725E0,1.0772159E0,1.1295887E0,2.6080234E0,2.3088372E0,6.411252E0,1.7664117E2,2.0910753E1,3.72735E1,1.0334776E1,1.1553376E0,1.1534996E0,2.1519191E0,4.2593327E0,4.245593E1,1.3418524E2,1.6189005E1,4.7217464E0,2.647535E0,3.462596E1,7.43805E0,2.8967261E0],"tree_param":{"num_deleted":"0","num_feature":"20","num_nodes":"33","size_leaf_vector":"1"}},{"base_weights":[-1.9226214E-2,7.6107815E-2,-1.9305901E-1,-2.729495E-2,2.2753333E-1,-5.109882E-2,-3.3654767E-1,-7.8865156E-2,4.8994532E-1,2.802281E-1,-5.727318E-2,-1.9337808E-1,1.0926562E-1,-4.0536088E-1,1.3589324E-1,-1.3254061E-1,4.9153805E-1,8.4571354E-2,2.234736E-2,-2.5940178E-2,4.010286E-1,-5.0258986E-3,-4.2126957E-1,-5.565992E-2,2.7755383E-1,-4.9946234E-1,-5.6206018E-2,3.8947994E-1,-4.1894563E-2,7.731343E-3,-2.3651373E-2,-2.3044422E-2,7.820707E-2,-4.647226E-2,3.577118E-2,1.2574558E-2,-4.4122748E-2,2.3926325E-2,5.7690687E-2,5.2810695E-2,-1.3971579E-2,3.7642904E-2,-5.473982E-2,-6.1035245E-3,5.084615E-2,-6.010085E-2,-2.5314331E-2,-2.6000768E-2,7.5891934E-2,-1.160718E-2,6.439013E-2],"categories":[],"categories_nodes":[],"categories_segments":[],"categories_sizes":[],"default_left":[0,0,0,0,0,0,0,0,0,0,0,0,0,0,0,0,0,0,0,0,0,0,0,0,0,0,0,0,0,0,0,0,0,0,0,0,0,0,0,0,0,0,0,0,0,0,0,0,0,0,0],"id":32,"left_children":[1,3,5,7,9,11,13,15,17,19,-1,21,23,25,27,29,31,-1,33,35,37,39,41,-1,43,45,47,49,-1,-1,-1,-1,-1,-1,-1,-1,-1,-1,-1,-1,-1,-1,-1,-1,-1,-1,-1,-1,-1,-1,-1],"loss_changes":[4.913355E0,3.0065317E0,2.1211572E0,3.0996976E0,3.4438705E0,1.2520528E0,1.7465439E0,3.2864609E0,1.734983E0,2.7370381E0,0E0,1.2404135E0,3.0681322E0,1.4722939E0,1.1992368E0,2.1337152E0,2.1229324E0,0E0,1.0781368E0,1.4285539E0,1.3677368E0,1.2845042E0,1.5227461E0,0E0,1.7059411E0,7.444067E-1,1.9949973E0,